{"learner":{"attributes":{"best_iteration":"99","best_score":"0.12456888251254956"},"feature_names":[],"feature_types":[],"gradient_booster":{"model":{"gbtree_model_param":{"num_parallel_tree":"1","num_trees":"100"},"iteration_indptr":[0,1,2,3,4,5,6,7,8,9,10,11,12,13,14,15,16,17,18,19,20,21,22,23,24,25,26,27,28,29,30,31,32,33,34,35,36,37,38,39,40,41,42,43,44,45,46,47,48,49,50,51,52,53,54,55,56,57,58,59,60,61,62,63,64,65,66,67,68,69,70,71,72,73,74,75,76,77,78,79,80,81,82,83,84,85,86,87,88,89,90,91,92,93,94,95,96,97,98,99,100],"tree_info":[0,0,0,0,0,0,0,0,0,0,0,0,0,0,0,0,0,0,0,0,0,0,0,0,0,0,0,0,0,0,0,0,0,0,0,0,0,0,0,0,0,0,0,0,0,0,0,0,0,0,0,0,0,0,0,0,0,0,0,0,0,0,0,0,0,0,0,0,0,0,0,0,0,0,0,0,0,0,0,0,0,0,0,0,0,0,0,0,0,0,0,0,0,0,0,0,0,0,0,0],"trees":[{"base_weights":[-0E0,8.7154835E-1,-9.662829E-2,-2.7447245E-1,1.7730523E0,-7.236305E-2,7.445642E-3,-4.3573636E-3,9.575161E-2],"categories":[],"categories_nodes":[],"categories_segments":[],"categories_sizes":[],"default_left":[0,0,0,0,0,0,0,0,0],"id":0,"left_children":[1,3,-1,5,7,-1,-1,-1,-1],"loss_changes":[1.1690048E3,5.0826364E2,0E0,1.15482864E2,9.028143E1,0E0,0E0,0E0,0E0],"parents":[2147483647,0,0,1,1,3,3,4,4],"right_children":[2,4,-1,6,8,-1,-1,-1,-1],"split_conditions":[1.17218874E-1,1E0,-9.662829E-2,1.2002304E-3,6.241198E-4,-7.236305E-2,7.445642E-3,-4.3573636E-3,9.575161E-2],"split_indices":[148,311,0,300,300,0,0,0,0],"split_type":[0,0,0,0,0,0,0,0,0],"sum_hessian":[6.909751E2,4.7598285E2,2.1499226E2,2.0499261E2,2.7099023E2,5.999784E1,1.4499478E2,1.4249487E1,2.5674075E2],"tree_param":{"num_deleted":"0","num_feature":"316","num_nodes":"9","size_leaf_vector":"1"}},{"base_weights":[-0E0,8.24252E-1,-9.208137E-2,-2.653482E-1,1.686788E0,-6.9716446E-2,8.206023E-3,-1.9255862E-2,9.026553E-2],"categories":[],"categories_nodes":[],"categories_segments":[],"categories_sizes":[],"default_left":[0,0,0,0,0,0,0,0,0],"id":1,"left_children":[1,3,-1,5,7,-1,-1,-1,-1],"loss_changes":[1.0587139E3,4.7228455E2,0E0,1.1478147E2,8.29292E1,0E0,0E0,0E0,0E0],"parents":[2147483647,0,0,1,1,3,3,4,4],"right_children":[2,4,-1,6,8,-1,-1,-1,-1],"split_conditions":[1.17218874E-1,1E0,-9.208137E-2,1.2002304E-3,4.880937E-4,-6.9716446E-2,8.206023E-3,-1.9255862E-2,9.026553E-2],"split_indices":[148,311,0,300,300,0,0,0,0],"split_type":[0,0,0,0,0,0,0,0,0],"sum_hessian":[6.995453E2,4.8592612E2,2.1361916E2,2.0988594E2,2.7604016E2,6.3636696E1,1.4624925E2,1.0249314E1,2.6579086E2],"tree_param":{"num_deleted":"0","num_feature":"316","num_nodes":"9","size_leaf_vector":"1"}},{"base_weights":[2.3650045E-2,8.1867313E-1,-8.809202E-2,-1.7847836E-1,1.6066772E0,-6.86322E-2,9.319357E-3,-2.566135E-2,8.6293206E-2],"categories":[],"categories_nodes":[],"categories_segments":[],"categories_sizes":[],"default_left":[0,0,0,0,0,0,0,0,0],"id":2,"left_children":[1,3,-1,5,7,-1,-1,-1,-1],"loss_changes":[9.7546423E2,3.9481714E2,0E0,1.0314363E2,8.275067E1,0E0,0E0,0E0,0E0],"parents":[2147483647,0,0,1,1,3,3,4,4],"right_children":[2,4,-1,6,8,-1,-1,-1,-1],"split_conditions":[1.17218874E-1,1E0,-8.809202E-2,8.961721E-4,4.800922E-4,-6.86322E-2,9.319357E-3,-2.566135E-2,8.6293206E-2],"split_indices":[148,311,0,300,300,0,0,0,0],"split_type":[0,0,0,0,0,0,0,0,0],"sum_hessian":[6.9181384E2,4.8292474E2,2.0888911E2,2.079125E2,2.7501224E2,5.442632E1,1.5348619E2,9.996829E0,2.650154E2],"tree_param":{"num_deleted":"0","num_feature":"316","num_nodes":"9","size_leaf_vector":"1"}},{"base_weights":[-0E0,7.440504E-1,-8.465213E-2,-6.0275227E-2,8.7138936E-2,-3.3171587E-2,5.424429E-2],"categories":[],"categories_nodes":[],"categories_segments":[],"categories_sizes":[],"default_left":[0,0,0,0,0,0,0],"id":3,"left_children":[1,3,-1,5,-1,-1,-1],"loss_changes":[8.685647E2,4.0640607E2,0E0,1.7883894E2,0E0,0E0,0E0],"parents":[2147483647,0,0,1,1,3,3],"right_children":[2,4,-1,6,-1,-1,-1],"split_conditions":[1.17218874E-1,9.803922E-3,-8.465213E-2,1E0,8.7138936E-2,-3.3171587E-2,5.424429E-2],"split_indices":[148,301,0,311,0,0,0],"split_type":[0,0,0,0,0,0,0],"sum_hessian":[6.92218E2,4.8384335E2,2.0837466E2,2.6297964E2,2.2086371E2,1.7824896E2,8.473069E1],"tree_param":{"num_deleted":"0","num_feature":"316","num_nodes":"7","size_leaf_vector":"1"}},{"base_weights":[-1.918932E-2,6.7587334E-1,-8.164893E-2,-9.271154E-2,1.6687814E0,-3.3782084E-2,5.115251E-2,-0E0,8.3977215E-2],"categories":[],"categories_nodes":[],"categories_segments":[],"categories_sizes":[],"default_left":[0,0,0,0,0,0,0,0,0],"id":4,"left_children":[1,3,-1,5,7,-1,-1,-1,-1],"loss_changes":[7.799645E2,3.7897266E2,0E0,1.6855853E2,7.046509E-1,0E0,0E0,0E0,0E0],"parents":[2147483647,0,0,1,1,3,3,4,4],"right_children":[2,4,-1,6,8,-1,-1,-1,-1],"split_conditions":[1.17218874E-1,9.803922E-3,-8.164893E-2,1E0,5.361029E-4,-3.3782084E-2,5.115251E-2,-0E0,8.3977215E-2],"split_indices":[148,301,0,311,300,0,0,0,0],"split_type":[0,0,0,0,0,0,0,0,0],"sum_hessian":[6.8483417E2,4.7474503E2,2.1008916E2,2.6243555E2,2.123095E2,1.7852304E2,8.391249E1,2.4753494E0,2.0983414E2],"tree_param":{"num_deleted":"0","num_feature":"316","num_nodes":"9","size_leaf_vector":"1"}},{"base_weights":[-0E0,6.742875E-1,-7.8844786E-2,-2.1463658E-1,1.4582577E0,1.4998458E-3,-7.456621E-2,7.7124715E-2,-1.2041024E-2],"categories":[],"categories_nodes":[],"categories_segments":[],"categories_sizes":[],"default_left":[0,0,0,0,0,0,0,0,0],"id":5,"left_children":[1,3,-1,5,7,-1,-1,-1,-1],"loss_changes":[7.188652E2,3.432129E2,0E0,8.2468376E1,5.0325806E1,0E0,0E0,0E0,0E0],"parents":[2147483647,0,0,1,1,3,3,4,4],"right_children":[2,4,-1,6,8,-1,-1,-1,-1],"split_conditions":[1.17218874E-1,1E0,-7.8844786E-2,2.044655E-1,1.985708E-1,1.4998458E-3,-7.456621E-2,7.7124715E-2,-1.2041024E-2],"split_indices":[148,311,0,95,225,0,0,0,0],"split_type":[0,0,0,0,0,0,0,0,0],"sum_hessian":[6.745885E2,4.731978E2,2.0139067E2,2.1611784E2,2.5707996E2,1.7561162E2,4.050622E1,2.5063187E2,6.4480953E0],"tree_param":{"num_deleted":"0","num_feature":"316","num_nodes":"9","size_leaf_vector":"1"}},{"base_weights":[-0E0,6.618098E-1,-7.645067E-2,-3.243742E-2,7.84403E-2,-6.231606E-2,1.8274158E-2],"categories":[],"categories_nodes":[],"categories_segments":[],"categories_sizes":[],"default_left":[0,0,0,0,0,0,0],"id":6,"left_children":[1,3,-1,5,-1,-1,-1],"loss_changes":[6.7550305E2,3.065849E2,0E0,1.3323763E2,0E0,0E0,0E0],"parents":[2147483647,0,0,1,1,3,3],"right_children":[2,4,-1,6,-1,-1,-1],"split_conditions":[1.17218874E-1,9.803922E-3,-7.645067E-2,9.681859E-4,7.84403E-2,-6.231606E-2,1.8274158E-2],"split_indices":[148,301,0,300,0,0,0],"split_type":[0,0,0,0,0,0,0],"sum_hessian":[6.6271783E2,4.6141037E2,2.0130746E2,2.5565881E2,2.0575156E2,6.879464E1,1.8686417E2],"tree_param":{"num_deleted":"0","num_feature":"316","num_nodes":"7","size_leaf_vector":"1"}},{"base_weights":[-0E0,6.3522226E-1,-7.419493E-2,-1.7143306E-1,1.3465798E0,-5.5556614E-2,7.141569E-3,-2.4812473E-3,7.342168E-2],"categories":[],"categories_nodes":[],"categories_segments":[],"categories_sizes":[],"default_left":[0,0,0,0,0,0,0,0,0],"id":7,"left_children":[1,3,-1,5,7,-1,-1,-1,-1],"loss_changes":[6.175026E2,2.799026E2,0E0,7.277222E1,5.7612335E1,0E0,0E0,0E0,0E0],"parents":[2147483647,0,0,1,1,3,3,4,4],"right_children":[2,4,-1,6,8,-1,-1,-1,-1],"split_conditions":[1.17218874E-1,1E0,-7.419493E-2,1.2002304E-3,6.241198E-4,-5.5556614E-2,7.141569E-3,-2.4812473E-3,7.342168E-2],"split_indices":[148,311,0,300,300,0,0,0,0],"split_type":[0,0,0,0,0,0,0,0,0],"sum_hessian":[6.5977966E2,4.659062E2,1.9387344E2,2.1209691E2,2.538093E2,6.0494297E1,1.516026E2,1.3833358E1,2.3997594E2],"tree_param":{"num_deleted":"0","num_feature":"316","num_nodes":"9","size_leaf_vector":"1"}},{"base_weights":[1.2567663E-2,-6.930876E-1,8.9260864E-1,-8.96901E-1,5.8296863E-3,1.0485921E0,-4.5370504E-2,-0E0,-5.102547E-2,-6.6298316E-3,2.2271669E-2,5.845281E-2,-3.6044043E-2],"categories":[],"categories_nodes":[],"categories_segments":[],"categories_sizes":[],"default_left":[0,0,0,0,0,0,0,0,0,0,0,0,0],"id":8,"left_children":[1,3,5,7,9,11,-1,-1,-1,-1,-1,-1,-1],"loss_changes":[4.1056067E2,6.003151E1,8.633647E1,3.995421E1,7.50382E0,6.518024E1,0E0,0E0,0E0,0E0,0E0,0E0,0E0],"parents":[2147483647,0,0,1,1,2,2,3,3,4,4,5,5],"right_children":[2,4,6,8,10,12,-1,-1,-1,-1,-1,-1,-1],"split_conditions":[1E0,1E0,1.7427431E-1,7.3431306E-2,2.94E2,1.985708E-1,-4.5370504E-2,-0E0,-5.102547E-2,-6.6298316E-3,2.2271669E-2,5.845281E-2,-3.6044043E-2],"split_indices":[311,312,149,273,306,225,0,0,0,0,0,0,0],"split_type":[0,0,0,0,0,0,0,0,0,0,0,0,0],"sum_hessian":[6.5591327E2,3.5783496E2,2.9807834E2,2.879032E2,6.9931755E1,2.798044E2,1.8273935E1,2.7383438E1,2.6051974E2,3.6415524E1,3.3516235E1,2.675786E2,1.2225794E1],"tree_param":{"num_deleted":"0","num_feature":"316","num_nodes":"13","size_leaf_vector":"1"}},{"base_weights":[-0E0,-5.7660323E-1,7.4179906E-1,-6.954092E-1,9.830392E-1,9.8426896E-1,-5.4102875E-2,-4.239713E-2,-0E0,5.505532E-2,-0E0,1.4242467E-3,5.989225E-2],"categories":[],"categories_nodes":[],"categories_segments":[],"categories_sizes":[],"default_left":[0,0,0,0,0,0,0,0,0,0,0,0,0],"id":9,"left_children":[1,3,5,7,9,11,-1,-1,-1,-1,-1,-1,-1],"loss_changes":[2.7184515E2,6.30011E1,1.2455028E2,4.11481E1,2.2952251E0,3.9507645E1,0E0,0E0,0E0,0E0,0E0,0E0,0E0],"parents":[2147483647,0,0,1,1,2,2,3,3,4,4,5,5],"right_children":[2,4,6,8,10,12,-1,-1,-1,-1,-1,-1,-1],"split_conditions":[2E-1,4.05E2,1.7427431E-1,1.8424162E-1,2.623E3,1E0,-5.4102875E-2,-4.239713E-2,-0E0,5.505532E-2,-0E0,1.4242467E-3,5.989225E-2],"split_indices":[302,306,149,6,307,309,0,0,0,0,0,0,0],"split_type":[0,0,0,0,0,0,0,0,0,0,0,0,0],"sum_hessian":[6.312822E2,3.5083817E2,2.804441E2,3.324775E2,1.8360664E1,2.5278163E2,2.7662455E1,2.8052145E2,5.195603E1,1.6324398E1,2.0362654E0,5.49276E1,1.9785403E2],"tree_param":{"num_deleted":"0","num_feature":"316","num_nodes":"13","size_leaf_vector":"1"}},{"base_weights":[-0E0,6.043412E-1,-7.09345E-2,-3.5425987E-2,7.250929E-2,-2.4731796E-2,3.9644893E-2],"categories":[],"categories_nodes":[],"categories_segments":[],"categories_sizes":[],"default_left":[0,0,0,0,0,0,0],"id":10,"left_children":[1,3,-1,5,-1,-1,-1],"loss_changes":[5.52E2,2.5508243E2,0E0,9.162362E1,0E0,0E0,0E0],"parents":[2147483647,0,0,1,1,3,3],"right_children":[2,4,-1,6,-1,-1,-1],"split_conditions":[1.17218874E-1,9.803922E-3,-7.09345E-2,1E0,7.250929E-2,-2.4731796E-2,3.9644893E-2],"split_indices":[148,301,0,311,0,0,0],"split_type":[0,0,0,0,0,0,0],"sum_hessian":[6.366225E2,4.4413773E2,1.9248479E2,2.4668755E2,1.9745018E2,1.6673027E2,7.995726E1],"tree_param":{"num_deleted":"0","num_feature":"316","num_nodes":"7","size_leaf_vector":"1"}},{"base_weights":[-0E0,-6.405186E-1,8.4257233E-1,-8.358853E-1,1.2630409E-2,-7.187493E-1,1.0495743E0,-0E0,-4.7329646E-2,-3.0465115E-2,1.53788E-2,-5.215451E-2,-0E0,6.0558658E-2,-3.579204E-2],"categories":[],"categories_nodes":[],"categories_segments":[],"categories_sizes":[],"default_left":[0,0,0,0,0,0,0,0,0,0,0,0,0,0,0],"id":11,"left_children":[1,3,5,7,9,11,13,-1,-1,-1,-1,-1,-1,-1,-1],"loss_changes":[3.4265012E2,5.4761795E1,9.1965454E1,3.1585632E1,1.0586159E1,8.413225E0,7.6059265E1,0E0,0E0,0E0,0E0,0E0,0E0,0E0,0E0],"parents":[2147483647,0,0,1,1,2,2,3,3,4,4,5,5,6,6],"right_children":[2,4,6,8,10,12,14,-1,-1,-1,-1,-1,-1,-1,-1],"split_conditions":[1E0,1E0,6.241198E-4,7.291902E-2,9.681859E-4,1.2630297E-1,1.7427431E-1,-0E0,-4.7329646E-2,-3.0465115E-2,1.53788E-2,-5.215451E-2,-0E0,6.0558658E-2,-3.579204E-2],"split_indices":[311,312,300,273,300,188,149,0,0,0,0,0,0,0,0],"split_type":[0,0,0,0,0,0,0,0,0,0,0,0,0,0,0],"sum_hessian":[6.345356E2,3.635563E2,2.709793E2,2.9141913E2,7.2137184E1,2.5776678E1,2.4520262E2,2.914891E1,2.6227023E2,1.195599E1,6.018119E1,1.9446062E1,6.330617E0,2.3011699E2,1.5085635E1],"tree_param":{"num_deleted":"0","num_feature":"316","num_nodes":"15","size_leaf_vector":"1"}},{"base_weights":[-0E0,5.6231326E-1,-6.850983E-2,-2.3901524E-2,6.954343E-2,-5.4220527E-2,1.5348757E-2],"categories":[],"categories_nodes":[],"categories_segments":[],"categories_sizes":[],"default_left":[0,0,0,0,0,0,0],"id":12,"left_children":[1,3,-1,5,-1,-1,-1],"loss_changes":[4.814384E2,2.272681E2,0E0,9.6330315E1,0E0,0E0,0E0],"parents":[2147483647,0,0,1,1,3,3],"right_children":[2,4,-1,6,-1,-1,-1],"split_conditions":[1.17218874E-1,9.803922E-3,-6.850983E-2,8.3215977E-4,6.954343E-2,-5.4220527E-2,1.5348757E-2],"split_indices":[148,301,0,300,0,0,0],"split_type":[0,0,0,0,0,0,0],"sum_hessian":[6.2007623E2,4.3869565E2,1.8138057E2,2.504211E2,1.8827457E2,6.619657E1,1.8422452E2],"tree_param":{"num_deleted":"0","num_feature":"316","num_nodes":"7","size_leaf_vector":"1"}},{"base_weights":[-6.3024717E-3,5.298313E-1,-6.702367E-2,-2.1909881E-2,6.777493E-2,-5.113077E-2,1.511537E-2],"categories":[],"categories_nodes":[],"categories_segments":[],"categories_sizes":[],"default_left":[0,0,0,0,0,0,0],"id":13,"left_children":[1,3,-1,5,-1,-1,-1],"loss_changes":[4.4181964E2,2.0797511E2,0E0,8.855832E1,0E0,0E0,0E0],"parents":[2147483647,0,0,1,1,3,3],"right_children":[2,4,-1,6,-1,-1,-1],"split_conditions":[1.17218874E-1,9.803922E-3,-6.702367E-2,1.1602228E-3,6.777493E-2,-5.113077E-2,1.511537E-2],"split_indices":[148,301,0,300,0,0,0],"split_type":[0,0,0,0,0,0,0],"sum_hessian":[6.0434955E2,4.2619254E2,1.7815698E2,2.4879837E2,1.7739417E2,6.790307E1,1.808953E2],"tree_param":{"num_deleted":"0","num_feature":"316","num_nodes":"7","size_leaf_vector":"1"}},{"base_weights":[-0E0,-6.051244E-1,7.8107196E-1,-7.922606E-1,-0E0,-8.6693674E-1,9.745819E-1,-0E0,-4.4332676E-2,-2.0215552E-2,5.2342862E-2,-5.0339397E-2,-0E0,5.6105733E-2,-3.0554151E-2],"categories":[],"categories_nodes":[],"categories_segments":[],"categories_sizes":[],"default_left":[0,0,0,0,0,0,0,0,0,0,0,0,0,0,0],"id":14,"left_children":[1,3,5,7,9,11,13,-1,-1,-1,-1,-1,-1,-1,-1],"loss_changes":[2.8366937E2,4.5859886E1,8.484717E1,2.1479385E1,3.5966545E1,3.519125E0,6.1615524E1,0E0,0E0,0E0,0E0,0E0,0E0,0E0,0E0],"parents":[2147483647,0,0,1,1,2,2,3,3,4,4,5,5,6,6],"right_children":[2,4,6,8,10,12,14,-1,-1,-1,-1,-1,-1,-1,-1],"split_conditions":[1E0,1E0,4.880937E-4,7.1892254E-2,2.157E3,1.2582073E-1,1.7427431E-1,-0E0,-4.4332676E-2,-2.0215552E-2,5.2342862E-2,-5.0339397E-2,-0E0,5.6105733E-2,-3.0554151E-2],"split_indices":[311,312,300,188,307,269,149,0,0,0,0,0,0,0,0],"split_type":[0,0,0,0,0,0,0,0,0,0,0,0,0,0,0],"sum_hessian":[5.994823E2,3.4045023E2,2.590321E2,2.712589E2,6.9191315E1,2.1423544E1,2.3760855E2,2.7561428E1,2.436975E2,4.4099533E1,2.5091782E1,1.9098423E1,2.3251214E0,2.2342003E2,1.4188511E1],"tree_param":{"num_deleted":"0","num_feature":"316","num_nodes":"15","size_leaf_vector":"1"}},{"base_weights":[6.278924E-3,5.420261E-1,-6.497241E-2,-6.247508E-3,6.640712E-2,-4.8357133E-2,1.4854747E-2],"categories":[],"categories_nodes":[],"categories_segments":[],"categories_sizes":[],"default_left":[0,0,0,0,0,0,0],"id":15,"left_children":[1,3,-1,5,-1,-1,-1],"loss_changes":[4.027975E2,1.9484598E2,0E0,7.745207E1,0E0,0E0,0E0],"parents":[2147483647,0,0,1,1,3,3],"right_children":[2,4,-1,6,-1,-1,-1],"split_conditions":[1.17218874E-1,9.803922E-3,-6.497241E-2,1.2002304E-3,6.640712E-2,-4.8357133E-2,1.4854747E-2],"split_indices":[148,301,0,300,0,0,0],"split_type":[0,0,0,0,0,0,0],"sum_hessian":[5.846243E2,4.2038248E2,1.6424185E2,2.4074626E2,1.7963622E2,6.514975E1,1.7559651E2],"tree_param":{"num_deleted":"0","num_feature":"316","num_nodes":"7","size_leaf_vector":"1"}},{"base_weights":[-0E0,5.149118E-1,-6.3800804E-2,-0E0,6.46259E-2,-3.2363348E-2,2.7225873E-2],"categories":[],"categories_nodes":[],"categories_segments":[],"categories_sizes":[],"default_left":[0,0,0,0,0,0,0],"id":16,"left_children":[1,3,-1,5,-1,-1,-1],"loss_changes":[3.7836548E2,1.7708347E2,0E0,8.791455E1,0E0,0E0,0E0],"parents":[2147483647,0,0,1,1,3,3],"right_children":[2,4,-1,6,-1,-1,-1],"split_conditions":[1.17218874E-1,9.803922E-3,-6.3800804E-2,9.130613E-2,6.46259E-2,-3.2363348E-2,2.7225873E-2],"split_indices":[148,301,0,271,0,0,0],"split_type":[0,0,0,0,0,0,0],"sum_hessian":[5.798537E2,4.1644977E2,1.6340393E2,2.4519833E2,1.7125143E2,1.1839413E2,1.268042E2],"tree_param":{"num_deleted":"0","num_feature":"316","num_nodes":"7","size_leaf_vector":"1"}},{"base_weights":[-0E0,4.8485434E-1,-6.260262E-2,-1.04401484E-1,1.1100297E0,-2.0896949E-2,5.673408E-2,5.823933E-2,-0E0],"categories":[],"categories_nodes":[],"categories_segments":[],"categories_sizes":[],"default_left":[0,0,0,0,0,0,0,0,0],"id":17,"left_children":[1,3,-1,5,7,-1,-1,-1,-1],"loss_changes":[3.4620782E2,1.617403E2,0E0,7.2747955E1,1.8865387E1,0E0,0E0,0E0,0E0],"parents":[2147483647,0,0,1,1,3,3,4,4],"right_children":[2,4,-1,6,8,-1,-1,-1,-1],"split_conditions":[1.17218874E-1,1E0,-6.260262E-2,9.803922E-3,2.1296383E-1,-2.0896949E-2,5.673408E-2,5.823933E-2,-0E0],"split_indices":[148,311,0,301,23,0,0,0,0],"split_type":[0,0,0,0,0,0,0,0,0],"sum_hessian":[5.685839E2,4.104359E2,1.58148E2,2.0348225E2,2.0695366E2,1.6936047E2,3.4121777E1,2.0176637E2,5.1872773E0],"tree_param":{"num_deleted":"0","num_feature":"316","num_nodes":"9","size_leaf_vector":"1"}},{"base_weights":[-0E0,4.5991135E-1,-6.148232E-2,-8.2858956E-1,7.4006927E-1,-5.845481E-2,-0E0,5.7405266E-3,5.972166E-2],"categories":[],"categories_nodes":[],"categories_segments":[],"categories_sizes":[],"default_left":[0,0,0,0,0,0,0,0,0],"id":18,"left_children":[1,3,-1,5,7,-1,-1,-1,-1],"loss_changes":[3.1467096E2,1.4500137E2,0E0,2.7296032E1,8.2642914E1,0E0,0E0,0E0,0E0],"parents":[2147483647,0,0,1,1,3,3,4,4],"right_children":[2,4,-1,6,8,-1,-1,-1,-1],"split_conditions":[1.17218874E-1,7.041352E-4,-6.148232E-2,1.291561E-1,1E0,-5.845481E-2,-0E0,5.7405266E-3,5.972166E-2],"split_indices":[148,300,0,77,311,0,0,0,0],"split_type":[0,0,0,0,0,0,0,0,0],"sum_hessian":[5.5225183E2,4.0143738E2,1.5081445E2,6.497107E1,3.364663E2,5.210939E1,1.2861675E1,1.51393E2,1.850733E2],"tree_param":{"num_deleted":"0","num_feature":"316","num_nodes":"9","size_leaf_vector":"1"}},{"base_weights":[-0E0,4.3835786E-1,-6.051541E-2,-1.4722549E-2,6.0925234E-2,-3.1737138E-2,1.9868378E-2],"categories":[],"categories_nodes":[],"categories_segments":[],"categories_sizes":[],"default_left":[0,0,0,0,0,0,0],"id":19,"left_children":[1,3,-1,5,-1,-1,-1],"loss_changes":[2.9327835E2,1.4984525E2,0E0,6.3814583E1,0E0,0E0,0E0],"parents":[2147483647,0,0,1,1,3,3],"right_children":[2,4,-1,6,-1,-1,-1],"split_conditions":[1.17218874E-1,9.803922E-3,-6.051541E-2,8.866199E-2,6.0925234E-2,-3.1737138E-2,1.9868378E-2],"split_indices":[148,301,0,271,0,0,0],"split_type":[0,0,0,0,0,0,0],"sum_hessian":[5.368949E2,3.8882022E2,1.4807468E2,2.3848183E2,1.5033838E2,1.04691666E2,1.3379016E2],"tree_param":{"num_deleted":"0","num_feature":"316","num_nodes":"7","size_leaf_vector":"1"}},{"base_weights":[-0E0,4.4493273E-1,-5.9457313E-2,-5.9882905E-3,1.2052245E0,-2.8328715E-2,2.3264483E-2,-0E0,6.1182678E-2],"categories":[],"categories_nodes":[],"categories_segments":[],"categories_sizes":[],"default_left":[0,0,0,0,0,0,0,0,0],"id":20,"left_children":[1,3,-1,5,7,-1,-1,-1,-1],"loss_changes":[2.760273E2,1.4677249E2,0E0,6.455115E1,1.4783783E0,0E0,0E0,0E0,0E0],"parents":[2147483647,0,0,1,1,3,3,4,4],"right_children":[2,4,-1,6,8,-1,-1,-1,-1],"split_conditions":[1.17218874E-1,9.803922E-3,-5.9457313E-2,9.17512E-2,6.001152E-4,-2.8328715E-2,2.3264483E-2,-0E0,6.1182678E-2],"split_indices":[148,301,0,271,300,0,0,0,0],"split_type":[0,0,0,0,0,0,0,0,0],"sum_hessian":[5.3128265E2,3.9211707E2,1.3916562E2,2.3850282E2,1.5361423E2,1.1852903E2,1.199738E2,3.6347554E0,1.4997948E2],"tree_param":{"num_deleted":"0","num_feature":"316","num_nodes":"9","size_leaf_vector":"1"}},{"base_weights":[-0E0,-4.89107E-1,6.8451184E-1,-6.409814E-1,-0E0,-5.894143E-1,8.9414716E-1,-0E0,-3.6956828E-2,-1.5295404E-2,4.8346523E-2,-4.2457916E-2,-0E0,4.900884E-2,-0E0],"categories":[],"categories_nodes":[],"categories_segments":[],"categories_sizes":[],"default_left":[0,0,0,0,0,0,0,0,0,0,0,0,0,0,0],"id":21,"left_children":[1,3,5,7,9,11,13,-1,-1,-1,-1,-1,-1,-1,-1],"loss_changes":[1.7200842E2,2.8162247E1,6.145677E1,1.9497627E1,2.3188969E1,5.50177E0,2.3966309E1,0E0,0E0,0E0,0E0,0E0,0E0,0E0,0E0],"parents":[2147483647,0,0,1,1,2,2,3,3,4,4,5,5,6,6],"right_children":[2,4,6,8,10,12,14,-1,-1,-1,-1,-1,-1,-1,-1],"split_conditions":[1E0,1E0,6.241198E-4,7.3431306E-2,2.157E3,1.2980445E-1,2.1813463E-1,-0E0,-3.6956828E-2,-1.5295404E-2,4.8346523E-2,-4.2457916E-2,-0E0,4.900884E-2,-0E0],"split_indices":[311,312,300,273,307,77,150,0,0,0,0,0,0,0,0],"split_type":[0,0,0,0,0,0,0,0,0,0,0,0,0,0,0],"sum_hessian":[5.09247E2,2.9350757E2,2.1573944E2,2.3902504E2,5.4482513E1,2.348863E1,1.9225081E2,2.3827532E1,2.1519751E2,3.4203827E1,2.0278687E1,1.8428558E1,5.0600724E0,1.8476201E2,7.488811E0],"tree_param":{"num_deleted":"0","num_feature":"316","num_nodes":"15","size_leaf_vector":"1"}},{"base_weights":[-0E0,4.100758E-1,-5.829711E-2,-7.6011186E-3,5.912965E-2,-4.5074265E-2,1.2469417E-2],"categories":[],"categories_nodes":[],"categories_segments":[],"categories_sizes":[],"default_left":[0,0,0,0,0,0,0],"id":22,"left_children":[1,3,-1,5,-1,-1,-1],"loss_changes":[2.4280574E2,1.30374E2,0E0,5.9856266E1,0E0,0E0,0E0],"parents":[2147483647,0,0,1,1,3,3],"right_children":[2,4,-1,6,-1,-1,-1],"split_conditions":[1.17218874E-1,9.803922E-3,-5.829711E-2,8.961721E-4,5.912965E-2,-4.5074265E-2,1.2469417E-2],"split_indices":[148,301,0,300,0,0,0],"split_type":[0,0,0,0,0,0,0],"sum_hessian":[4.9874875E2,3.6661334E2,1.321354E2,2.3019777E2,1.3641559E2,5.9532085E1,1.7066568E2],"tree_param":{"num_deleted":"0","num_feature":"316","num_nodes":"7","size_leaf_vector":"1"}},{"base_weights":[-0E0,-4.5535487E-1,6.342368E-1,-5.399119E-1,3.616732E-2,8.185288E-1,-0E0,6.8212743E-3,-3.2001335E-2,4.6138816E-2,-6.720238E-4,-1.686755E-2,-0E0],"categories":[],"categories_nodes":[],"categories_segments":[],"categories_sizes":[],"default_left":[0,0,0,0,0,0,0,0,0,0,0,0,0],"id":23,"left_children":[1,3,5,7,-1,9,11,-1,-1,-1,-1,-1,-1],"loss_changes":[1.4445717E2,2.8132034E1,3.0918472E1,2.444619E1,0E0,2.3843239E1,2.7069037E0,0E0,0E0,0E0,0E0,0E0,0E0],"parents":[2147483647,0,0,1,1,2,2,3,3,5,5,6,6],"right_children":[2,4,6,8,-1,10,12,-1,-1,-1,-1,-1,-1],"split_conditions":[1E0,4.02E2,1.5404417E-1,6.4134665E-2,3.616732E-2,1.7427431E-1,2.171E3,6.8212743E-3,-3.2001335E-2,4.6138816E-2,-6.720238E-4,-1.686755E-2,-0E0],"split_indices":[311,306,36,269,0,149,307,0,0,0,0,0,0],"split_type":[0,0,0,0,0,0,0,0,0,0,0,0,0],"sum_hessian":[5.0090134E2,2.957451E2,2.0515625E2,2.843709E2,1.1374189E1,1.6892229E2,3.623396E1,2.374058E1,2.606303E2,1.6069713E2,8.225162E0,2.2785307E1,1.3448653E1],"tree_param":{"num_deleted":"0","num_feature":"316","num_nodes":"13","size_leaf_vector":"1"}},{"base_weights":[-6.357621E-3,-4.7705138E-1,6.2845534E-1,-5.563833E-1,3.2464813E-2,-5.9791493E-1,8.269457E-1,4.052233E-3,-3.3085518E-2,-4.1601803E-2,-0E0,4.5950834E-2,-0E0],"categories":[],"categories_nodes":[],"categories_segments":[],"categories_sizes":[],"default_left":[0,0,0,0,0,0,0,0,0,0,0,0,0],"id":24,"left_children":[1,3,5,7,-1,9,11,-1,-1,-1,-1,-1,-1],"loss_changes":[1.4671288E2,2.569323E1,5.1997826E1,2.4886627E1,0E0,4.5808783E0,2.2586403E1,0E0,0E0,0E0,0E0,0E0,0E0],"parents":[2147483647,0,0,1,1,2,2,3,3,5,5,6,6],"right_children":[2,4,6,8,-1,10,12,-1,-1,-1,-1,-1,-1],"split_conditions":[1E0,4.05E2,6.241198E-4,6.445778E-2,3.2464813E-2,1.2980445E-1,2.1813463E-1,4.052233E-3,-3.3085518E-2,-4.1601803E-2,-0E0,4.5950834E-2,-0E0],"split_indices":[311,306,300,269,0,77,150,0,0,0,0,0,0],"split_type":[0,0,0,0,0,0,0,0,0,0,0,0,0],"sum_hessian":[4.940665E2,2.9289517E2,2.0117133E2,2.823899E2,1.05052595E1,2.072564E1,1.804457E2,2.661384E1,2.5577606E2,1.6836388E1,3.8892522E0,1.7265323E2,7.7924557E0],"tree_param":{"num_deleted":"0","num_feature":"316","num_nodes":"13","size_leaf_vector":"1"}},{"base_weights":[-0E0,-4.304129E-1,5.864763E-1,-7.238402E-1,-0E0,-4.9713707E-1,7.854245E-1,-0E0,-4.1955903E-2,-3.2358855E-2,4.5603618E-2,-4.067886E-2,-0E0,4.364669E-2,-0E0],"categories":[],"categories_nodes":[],"categories_segments":[],"categories_sizes":[],"default_left":[0,0,0,0,0,0,0,0,0,0,0,0,0,0,0],"id":25,"left_children":[1,3,5,7,9,11,13,-1,-1,-1,-1,-1,-1,-1,-1],"loss_changes":[1.2296451E2,2.9479053E1,4.705993E1,1.7613777E1,7.488698E1,6.3679338E0,2.0376785E1,0E0,0E0,0E0,0E0,0E0,0E0,0E0,0E0],"parents":[2147483647,0,0,1,1,2,2,3,3,4,4,5,5,6,6],"right_children":[2,4,6,8,10,12,14,-1,-1,-1,-1,-1,-1,-1,-1],"split_conditions":[1E0,2.009E3,6.241198E-4,6.458066E-2,2E0,1.2980445E-1,2.1813463E-1,-0E0,-4.1955903E-2,-3.2358855E-2,4.5603618E-2,-4.067886E-2,-0E0,4.364669E-2,-0E0],"split_indices":[311,307,300,271,315,77,150,0,0,0,0,0,0,0,0],"split_type":[0,0,0,0,0,0,0,0,0,0,0,0,0,0,0],"sum_hessian":[4.8776447E2,2.856565E2,2.0210797E2,1.5661908E2,1.290374E2,2.3321152E1,1.7878682E2,1.5317241E1,1.4130183E2,8.160719E1,4.743021E1,1.7701685E1,5.6194673E0,1.7128796E2,7.4988456E0],"tree_param":{"num_deleted":"0","num_feature":"316","num_nodes":"15","size_leaf_vector":"1"}},{"base_weights":[-0E0,3.9512423E-1,-5.6878634E-2,-0E0,1.1435106E0,-2.9734537E-2,2.0092616E-2,-0E0,5.814008E-2],"categories":[],"categories_nodes":[],"categories_segments":[],"categories_sizes":[],"default_left":[0,0,0,0,0,0,0,0,0],"id":26,"left_children":[1,3,-1,5,7,-1,-1,-1,-1],"loss_changes":[2.1963644E2,1.136868E2,0E0,5.465236E1,3.798523E-1,0E0,0E0,0E0,0E0],"parents":[2147483647,0,0,1,1,3,3,4,4],"right_children":[2,4,-1,6,8,-1,-1,-1,-1],"split_conditions":[1.17218874E-1,9.803922E-3,-5.6878634E-2,8.866199E-2,1.01E2,-2.9734537E-2,2.0092616E-2,-0E0,5.814008E-2],"split_indices":[148,301,0,271,307,0,0,0,0],"split_type":[0,0,0,0,0,0,0,0,0],"sum_hessian":[4.7318558E2,3.463687E2,1.2681685E2,2.1895255E2,1.27416176E2,9.772302E1,1.2122952E2,3.9446087E0,1.23471565E2],"tree_param":{"num_deleted":"0","num_feature":"316","num_nodes":"9","size_leaf_vector":"1"}},{"base_weights":[-0E0,-3.5844183E-1,5.8591306E-1,-6.156961E-1,-0E0,-5.7917476E-1,7.721718E-1,-0E0,-3.9640006E-2,-3.161395E-2,5.0659396E-2,-3.5823207E-2,-0E0,4.5896195E-2,-1.6309908E-2],"categories":[],"categories_nodes":[],"categories_segments":[],"categories_sizes":[],"default_left":[0,0,0,0,0,0,0,0,0,0,0,0,0,0,0],"id":27,"left_children":[1,3,5,7,9,11,13,-1,-1,-1,-1,-1,-1,-1,-1],"loss_changes":[1.0018443E2,2.6162872E1,4.293505E1,1.5217854E1,7.60012E1,2.307127E0,3.3266113E1,0E0,0E0,0E0,0E0,0E0,0E0,0E0,0E0],"parents":[2147483647,0,0,1,1,2,2,3,3,4,4,5,5,6,6],"right_children":[2,4,6,8,10,12,14,-1,-1,-1,-1,-1,-1,-1,-1],"split_conditions":[1E0,2.157E3,4.880937E-4,1E0,2E0,2.3579046E-1,1.7427431E-1,-0E0,-3.9640006E-2,-3.161395E-2,5.0659396E-2,-3.5823207E-2,-0E0,4.5896195E-2,-1.6309908E-2],"split_indices":[311,307,300,315,315,298,149,0,0,0,0,0,0,0,0],"split_type":[0,0,0,0,0,0,0,0,0,0,0,0,0,0,0],"sum_hessian":[4.652822E2,2.7938635E2,1.8589584E2,1.6304662E2,1.1633973E2,1.79316E1,1.6796423E2,4.08947E1,1.2215192E2,7.156282E1,4.4776913E1,1.5865878E1,2.0657227E0,1.5646964E2,1.1494603E1],"tree_param":{"num_deleted":"0","num_feature":"316","num_nodes":"15","size_leaf_vector":"1"}},{"base_weights":[-0E0,3.8397133E-1,-5.5964507E-2,-7.3604506E-1,6.374716E-1,-5.1763337E-2,-0E0,-3.6524255E-2,3.774608E-2],"categories":[],"categories_nodes":[],"categories_segments":[],"categories_sizes":[],"default_left":[0,0,0,0,0,0,0,0,0],"id":28,"left_children":[1,3,-1,5,7,-1,-1,-1,-1],"loss_changes":[2.0340602E2,9.720094E1,0E0,1.7827675E1,4.7142136E1,0E0,0E0,0E0,0E0],"parents":[2147483647,0,0,1,1,3,3,4,4],"right_children":[2,4,-1,6,8,-1,-1,-1,-1],"split_conditions":[1.17218874E-1,7.041352E-4,-5.5964507E-2,1.2980445E-1,3E0,-5.1763337E-2,-0E0,-3.6524255E-2,3.774608E-2],"split_indices":[148,300,0,77,308,0,0,0,0],"split_type":[0,0,0,0,0,0,0,0,0],"sum_hessian":[4.640244E2,3.431671E2,1.20857315E2,5.570403E1,2.8746307E2,4.429652E1,1.140751E1,1.5584602E1,2.7187848E2],"tree_param":{"num_deleted":"0","num_feature":"316","num_nodes":"9","size_leaf_vector":"1"}},{"base_weights":[-0E0,3.9934218E-1,-5.5164363E-2,-6.5276E-1,6.3564694E-1,-5.1429193E-2,-0E0,-3.430306E-2,3.753049E-2],"categories":[],"categories_nodes":[],"categories_segments":[],"categories_sizes":[],"default_left":[0,0,0,0,0,0,0,0,0],"id":29,"left_children":[1,3,-1,5,7,-1,-1,-1,-1],"loss_changes":[1.961543E2,8.486496E1,0E0,2.311378E1,4.4649223E1,0E0,0E0,0E0,0E0],"parents":[2147483647,0,0,1,1,3,3,4,4],"right_children":[2,4,-1,6,8,-1,-1,-1,-1],"split_conditions":[1.17218874E-1,7.041352E-4,-5.5164363E-2,1.2980445E-1,3E0,-5.1429193E-2,-0E0,-3.430306E-2,3.753049E-2],"split_indices":[148,300,0,77,308,0,0,0,0],"split_type":[0,0,0,0,0,0,0,0,0],"sum_hessian":[4.549218E2,3.393679E2,1.15553925E2,5.415819E1,2.852097E2,4.3061543E1,1.1096648E1,1.5464511E1,2.6974518E2],"tree_param":{"num_deleted":"0","num_feature":"316","num_nodes":"9","size_leaf_vector":"1"}},{"base_weights":[-0E0,3.5847723E-1,-5.448806E-2,-0E0,5.513831E-2,-2.6931027E-2,1.9418364E-2],"categories":[],"categories_nodes":[],"categories_segments":[],"categories_sizes":[],"default_left":[0,0,0,0,0,0,0],"id":30,"left_children":[1,3,-1,5,-1,-1,-1],"loss_changes":[1.759687E2,9.578929E1,0E0,4.7350727E1,0E0,0E0,0E0],"parents":[2147483647,0,0,1,1,3,3],"right_children":[2,4,-1,6,-1,-1,-1],"split_conditions":[1.17218874E-1,9.803922E-3,-5.448806E-2,1.0422408E-1,5.513831E-2,-2.6931027E-2,1.9418364E-2],"split_indices":[148,301,0,77,0,0,0],"split_type":[0,0,0,0,0,0,0],"sum_hessian":[4.441261E2,3.3310474E2,1.1102136E2,2.2003148E2,1.1307326E2,9.852338E1,1.21508095E2],"tree_param":{"num_deleted":"0","num_feature":"316","num_nodes":"7","size_leaf_vector":"1"}},{"base_weights":[-0E0,3.4748632E-1,-5.3998243E-2,-0E0,1.0964569E0,-3.0250097E-2,1.1803138E-2,-0E0,5.5819727E-2],"categories":[],"categories_nodes":[],"categories_segments":[],"categories_sizes":[],"default_left":[0,0,0,0,0,0,0,0,0],"id":31,"left_children":[1,3,-1,5,7,-1,-1,-1,-1],"loss_changes":[1.6895953E2,9.5420204E1,0E0,3.4447346E1,2.3529053E-1,0E0,0E0,0E0,0E0],"parents":[2147483647,0,0,1,1,3,3,4,4],"right_children":[2,4,-1,6,8,-1,-1,-1,-1],"split_conditions":[1.17218874E-1,9.803922E-3,-5.3998243E-2,2.2484318E-3,1.01E2,-3.0250097E-2,1.1803138E-2,-0E0,5.5819727E-2],"split_indices":[148,301,0,300,307,0,0,0,0],"split_type":[0,0,0,0,0,0,0,0,0],"sum_hessian":[4.3633896E2,3.2636533E2,1.0997365E2,2.1511566E2,1.11249664E2,7.1021645E1,1.4409401E2,3.7847614E0,1.074649E2],"tree_param":{"num_deleted":"0","num_feature":"316","num_nodes":"9","size_leaf_vector":"1"}},{"base_weights":[-0E0,3.4573874E-1,-5.335641E-2,-5.095007E-3,8.9440995E-1,6.005416E-3,-4.9591836E-2,-0E0,5.0935175E-2],"categories":[],"categories_nodes":[],"categories_segments":[],"categories_sizes":[],"default_left":[0,0,0,0,0,0,0,0,0],"id":32,"left_children":[1,3,-1,5,7,-1,-1,-1,-1],"loss_changes":[1.6202834E2,7.2236465E1,0E0,3.2381927E1,2.2425247E1,0E0,0E0,0E0,0E0],"parents":[2147483647,0,0,1,1,3,3,4,4],"right_children":[2,4,-1,6,8,-1,-1,-1,-1],"split_conditions":[1.17218874E-1,1E0,-5.335641E-2,2.3841836E-1,6.241198E-4,6.005416E-3,-4.9591836E-2,-0E0,5.0935175E-2],"split_indices":[148,311,0,3,300,0,0,0,0],"split_type":[0,0,0,0,0,0,0,0,0],"sum_hessian":[4.3479037E2,3.2804553E2,1.0674484E2,1.8958508E2,1.3846045E2,1.6002422E2,2.9560858E1,1.0346082E1,1.2811436E2],"tree_param":{"num_deleted":"0","num_feature":"316","num_nodes":"9","size_leaf_vector":"1"}},{"base_weights":[-0E0,2.9202825E-1,-5.238824E-2,-3.9672896E-2,1.0620804E0,1.4966632E-2,-2.4396395E-2,-0E0,5.4217484E-2],"categories":[],"categories_nodes":[],"categories_segments":[],"categories_sizes":[],"default_left":[0,0,0,0,0,0,0,0,0],"id":33,"left_children":[1,3,-1,5,7,-1,-1,-1,-1],"loss_changes":[1.349331E2,9.247897E1,0E0,3.4984562E1,1.160492E0,0E0,0E0,0E0,0E0],"parents":[2147483647,0,0,1,1,3,3,4,4],"right_children":[2,4,-1,6,8,-1,-1,-1,-1],"split_conditions":[1.17218874E-1,9.803922E-3,-5.238824E-2,1.15603305E-1,6.001152E-4,1.4966632E-2,-2.4396395E-2,-0E0,5.4217484E-2],"split_indices":[148,301,0,79,300,0,0,0,0],"split_type":[0,0,0,0,0,0,0,0,0],"sum_hessian":[4.177717E2,3.2086377E2,9.690791E1,2.1584889E2,1.05014885E2,1.1038819E2,1.0546071E2,3.3227468E0,1.0169214E2],"tree_param":{"num_deleted":"0","num_feature":"316","num_nodes":"9","size_leaf_vector":"1"}},{"base_weights":[-0E0,-3.4187335E-1,5.160193E-1,-6.1519533E-1,-0E0,-3.1295806E-1,7.01224E-1,-0E0,-4.1846756E-2,-2.7480101E-2,4.421106E-2,-2.9160285E-2,-0E0,4.177706E-2,-5.149569E-3],"categories":[],"categories_nodes":[],"categories_segments":[],"categories_sizes":[],"default_left":[0,0,0,0,0,0,0,0,0,0,0,0,0,0,0],"id":34,"left_children":[1,3,5,7,9,11,13,-1,-1,-1,-1,-1,-1,-1,-1],"loss_changes":[7.281839E1,2.2309809E1,2.8873924E1,2.083527E1,5.7278E1,3.378665E0,2.2755997E1,0E0,0E0,0E0,0E0,0E0,0E0,0E0,0E0],"parents":[2147483647,0,0,1,1,2,2,3,3,4,4,5,5,6,6],"right_children":[2,4,6,8,10,12,14,-1,-1,-1,-1,-1,-1,-1,-1],"split_conditions":[1E0,1.979E3,6.241198E-4,1E0,2E0,1.291561E-1,1.7427431E-1,-0E0,-4.1846756E-2,-2.7480101E-2,4.421106E-2,-2.9160285E-2,-0E0,4.177706E-2,-5.149569E-3],"split_indices":[311,307,300,315,315,77,149,0,0,0,0,0,0,0,0],"split_type":[0,0,0,0,0,0,0,0,0,0,0,0,0,0,0],"sum_hessian":[4.1478946E2,2.5444167E2,1.603478E2,1.368334E2,1.1760826E2,1.9295763E1,1.4105203E2,3.3615612E1,1.032178E2,7.4528404E1,4.3079853E1,1.4777806E1,4.517957E0,1.3148708E2,9.564963E0],"tree_param":{"num_deleted":"0","num_feature":"316","num_nodes":"15","size_leaf_vector":"1"}},{"base_weights":[-0E0,2.9827306E-1,-5.161214E-2,-1.3035735E-2,1.0581006E0,-2.7115902E-2,1.6039928E-2,-0E0,5.3794708E-2],"categories":[],"categories_nodes":[],"categories_segments":[],"categories_sizes":[],"default_left":[0,0,0,0,0,0,0,0,0],"id":35,"left_children":[1,3,-1,5,7,-1,-1,-1,-1],"loss_changes":[1.2799084E2,8.4497574E1,0E0,4.0143234E1,9.42894E-1,0E0,0E0,0E0,0E0],"parents":[2147483647,0,0,1,1,3,3,4,4],"right_children":[2,4,-1,6,8,-1,-1,-1,-1],"split_conditions":[1.17218874E-1,9.803922E-3,-5.161214E-2,8.866199E-2,5.361029E-4,-2.7115902E-2,1.6039928E-2,-0E0,5.3794708E-2],"split_indices":[148,301,0,271,300,0,0,0,0],"split_type":[0,0,0,0,0,0,0,0,0],"sum_hessian":[4.0496954E2,3.1198227E2,9.298728E1,2.126709E2,9.931138E1,9.3600746E1,1.19070145E2,2.475968E0,9.683541E1],"tree_param":{"num_deleted":"0","num_feature":"316","num_nodes":"9","size_leaf_vector":"1"}},{"base_weights":[-0E0,3.0426645E-1,-5.1159006E-2,-0E0,1.0377357E0,1.7137287E-2,-2.084945E-2,-0E0,5.287161E-2],"categories":[],"categories_nodes":[],"categories_segments":[],"categories_sizes":[],"default_left":[0,0,0,0,0,0,0,0,0],"id":36,"left_children":[1,3,-1,5,7,-1,-1,-1,-1],"loss_changes":[1.2409781E2,7.2742836E1,0E0,3.0875017E1,1.3037262E0,0E0,0E0,0E0,0E0],"parents":[2147483647,0,0,1,1,3,3,4,4],"right_children":[2,4,-1,6,8,-1,-1,-1,-1],"split_conditions":[1.17218874E-1,9.803922E-3,-5.1159006E-2,1.15603305E-1,5.361029E-4,1.7137287E-2,-2.084945E-2,-0E0,5.287161E-2],"split_indices":[148,301,0,79,300,0,0,0,0],"split_type":[0,0,0,0,0,0,0,0,0],"sum_hessian":[3.950857E2,3.0456876E2,9.0516914E1,2.117511E2,9.281767E1,1.1054977E2,1.01201324E2,2.2965448E0,9.0521126E1],"tree_param":{"num_deleted":"0","num_feature":"316","num_nodes":"9","size_leaf_vector":"1"}},{"base_weights":[-0E0,2.6106519E-1,-5.0620984E-2,-5.3182572E-2,8.004761E-1,2.2881352E-3,-4.655112E-2,4.6204746E-2,-0E0],"categories":[],"categories_nodes":[],"categories_segments":[],"categories_sizes":[],"default_left":[0,0,0,0,0,0,0,0,0],"id":37,"left_children":[1,3,-1,5,7,-1,-1,-1,-1],"loss_changes":[1.1163097E2,5.9305767E1,0E0,2.4727972E1,2.122422E1,0E0,0E0,0E0,0E0],"parents":[2147483647,0,0,1,1,3,3,4,4],"right_children":[2,4,-1,6,8,-1,-1,-1,-1],"split_conditions":[1.17218874E-1,1E0,-5.0620984E-2,2.3841836E-1,1.985708E-1,2.2881352E-3,-4.655112E-2,4.6204746E-2,-0E0],"split_indices":[148,311,0,3,225,0,0,0,0],"split_type":[0,0,0,0,0,0,0,0,0],"sum_hessian":[3.9212482E2,3.0453162E2,8.7593185E1,1.8128313E2,1.23248505E2,1.535339E2,2.7749226E1,1.1708395E2,6.1645584E0],"tree_param":{"num_deleted":"0","num_feature":"316","num_nodes":"9","size_leaf_vector":"1"}},{"base_weights":[-0E0,2.6490262E-1,-5.009083E-2,-7.7177575E-3,1.0158246E0,-3.7077095E-2,9.270665E-3,-0E0,5.2106947E-2],"categories":[],"categories_nodes":[],"categories_segments":[],"categories_sizes":[],"default_left":[0,0,0,0,0,0,0,0,0],"id":38,"left_children":[1,3,-1,5,7,-1,-1,-1,-1],"loss_changes":[1.0768339E2,7.165466E1,0E0,3.5724163E1,1.2240677E0,0E0,0E0,0E0,0E0],"parents":[2147483647,0,0,1,1,3,3,4,4],"right_children":[2,4,-1,6,8,-1,-1,-1,-1],"split_conditions":[1.17218874E-1,9.803922E-3,-5.009083E-2,1.2482397E-3,6.001152E-4,-3.7077095E-2,9.270665E-3,-0E0,5.2106947E-2],"split_indices":[148,301,0,300,300,0,0,0,0],"split_type":[0,0,0,0,0,0,0,0,0],"sum_hessian":[3.8500247E2,2.9973648E2,8.526598E1,2.108578E2,8.887866E1,5.4128593E1,1.5672922E2,3.3545687E0,8.552409E1],"tree_param":{"num_deleted":"0","num_feature":"316","num_nodes":"9","size_leaf_vector":"1"}},{"base_weights":[-0E0,2.3868297E-1,-4.9367152E-2,-2.8704451E-2,1.003057E0,2.8120528E-3,-5.5085313E-2,-0E0,5.1547535E-2],"categories":[],"categories_nodes":[],"categories_segments":[],"categories_sizes":[],"default_left":[0,0,0,0,0,0,0,0,0],"id":39,"left_children":[1,3,-1,5,7,-1,-1,-1,-1],"loss_changes":[9.635953E1,7.068362E1,0E0,2.9846004E1,1.7423782E0,0E0,0E0,0E0,0E0],"parents":[2147483647,0,0,1,1,3,3,4,4],"right_children":[2,4,-1,6,8,-1,-1,-1,-1],"split_conditions":[1.17218874E-1,9.803922E-3,-4.9367152E-2,1.5929492E-1,6.001152E-4,2.8120528E-3,-5.5085313E-2,-0E0,5.1547535E-2],"split_indices":[148,301,0,23,300,0,0,0,0],"split_type":[0,0,0,0,0,0,0,0,0],"sum_hessian":[3.7745328E2,2.9702377E2,8.042952E1,2.1106906E2,8.59547E1,1.8782741E2,2.3241652E1,3.0023358E0,8.295236E1],"tree_param":{"num_deleted":"0","num_feature":"316","num_nodes":"9","size_leaf_vector":"1"}},{"base_weights":[-0E0,2.6599097E-1,-4.8771903E-2,-6.086047E-1,4.8444292E-1,-4.1070335E-2,-0E0,-3.5932247E-2,3.0102333E-2],"categories":[],"categories_nodes":[],"categories_segments":[],"categories_sizes":[],"default_left":[0,0,0,0,0,0,0,0,0],"id":40,"left_children":[1,3,-1,5,7,-1,-1,-1,-1],"loss_changes":[9.4780136E1,5.5473186E1,0E0,1.2209118E1,3.407143E1,0E0,0E0,0E0,0E0],"parents":[2147483647,0,0,1,1,3,3,4,4],"right_children":[2,4,-1,6,8,-1,-1,-1,-1],"split_conditions":[1.17218874E-1,7.041352E-4,-4.8771903E-2,2E-1,3E0,-4.1070335E-2,-0E0,-3.5932247E-2,3.0102333E-2],"split_indices":[148,300,0,302,308,0,0,0,0],"split_type":[0,0,0,0,0,0,0,0,0],"sum_hessian":[3.7095908E2,2.943042E2,7.665487E1,4.931274E1,2.4499146E2,4.4715927E1,4.5968122E0,1.3788892E1,2.3120258E2],"tree_param":{"num_deleted":"0","num_feature":"316","num_nodes":"9","size_leaf_vector":"1"}},{"base_weights":[-0E0,-2.9859585E-1,4.6312892E-1,-5.7003736E-1,-0E0,-1.6513436E-1,6.4068377E-1,-0E0,-3.8433805E-2,-2.3300568E-2,4.1375723E-2,-2.0515038E-2,-0E0,3.7847143E-2,-0E0],"categories":[],"categories_nodes":[],"categories_segments":[],"categories_sizes":[],"default_left":[0,0,0,0,0,0,0,0,0,0,0,0,0,0,0],"id":41,"left_children":[1,3,5,7,9,11,13,-1,-1,-1,-1,-1,-1,-1,-1],"loss_changes":[4.9403152E1,1.932839E1,1.9937582E1,1.4895943E1,4.2391396E1,1.7921531E0,1.497868E1,0E0,0E0,0E0,0E0,0E0,0E0,0E0,0E0],"parents":[2147483647,0,0,1,1,2,2,3,3,4,4,5,5,6,6],"right_children":[2,4,6,8,10,12,14,-1,-1,-1,-1,-1,-1,-1,-1],"split_conditions":[1E0,1.979E3,6.241198E-4,1E0,2E0,1.2782118E-1,1.7427431E-1,-0E0,-3.8433805E-2,-2.3300568E-2,4.1375723E-2,-2.0515038E-2,-0E0,3.7847143E-2,-0E0],"split_indices":[311,307,300,315,315,188,149,0,0,0,0,0,0,0,0],"split_type":[0,0,0,0,0,0,0,0,0,0,0,0,0,0,0],"sum_hessian":[3.6212033E2,2.2796901E2,1.3415134E2,1.2130821E2,1.0666079E2,1.7164717E1,1.16986626E2,2.9834835E1,9.147338E1,6.7469696E1,3.9191093E1,1.2587991E1,4.576727E0,1.09669235E2,7.3173833E0],"tree_param":{"num_deleted":"0","num_feature":"316","num_nodes":"15","size_leaf_vector":"1"}},{"base_weights":[-0E0,-2.657925E-1,4.1305077E-1,-3.9851114E-1,9.9728204E-2,-2.7568224E-1,6.196436E-1,-6.721448E-4,-3.834E-2,1.9267235E-2,-0E0,-2.4457622E-2,-0E0,3.506551E-2,-0E0],"categories":[],"categories_nodes":[],"categories_segments":[],"categories_sizes":[],"default_left":[0,0,0,0,0,0,0,0,0,0,0,0,0,0,0],"id":42,"left_children":[1,3,5,7,9,11,13,-1,-1,-1,-1,-1,-1,-1,-1],"loss_changes":[3.865278E1,1.429299E1,2.2164392E1,1.9222376E1,4.0512614E0,2.0694752E0,9.58176E0,0E0,0E0,0E0,0E0,0E0,0E0,0E0,0E0],"parents":[2147483647,0,0,1,1,2,2,3,3,4,4,5,5,6,6],"right_children":[2,4,6,8,10,12,14,-1,-1,-1,-1,-1,-1,-1,-1],"split_conditions":[1E0,1.8424162E-1,6.241198E-4,1.22081906E-1,9.803922E-3,1.2980445E-1,2.1813463E-1,-6.721448E-4,-3.834E-2,1.9267235E-2,-0E0,-2.4457622E-2,-0E0,3.506551E-2,-0E0],"split_indices":[311,6,300,79,301,93,150,0,0,0,0,0,0,0,0],"split_type":[0,0,0,0,0,0,0,0,0,0,0,0,0,0,0],"sum_hessian":[3.606199E2,2.3122206E2,1.2939783E2,1.8963469E2,4.158737E1,1.8611746E1,1.1078609E2,1.06486115E2,8.3148575E1,2.9135412E1,1.2451958E1,1.3878505E1,4.733241E0,1.057489E2,5.037182E0],"tree_param":{"num_deleted":"0","num_feature":"316","num_nodes":"15","size_leaf_vector":"1"}},{"base_weights":[-0E0,2.3201565E-1,-4.8442356E-2,-1.4048629E-3,9.80981E-1,3.3756706E-3,-5.099985E-2,-0E0,4.9958702E-2],"categories":[],"categories_nodes":[],"categories_segments":[],"categories_sizes":[],"default_left":[0,0,0,0,0,0,0,0,0],"id":43,"left_children":[1,3,-1,5,7,-1,-1,-1,-1],"loss_changes":[8.6455154E1,5.8691856E1,0E0,2.391762E1,5.3678894E-1,0E0,0E0,0E0,0E0],"parents":[2147483647,0,0,1,1,3,3,4,4],"right_children":[2,4,-1,6,8,-1,-1,-1,-1],"split_conditions":[1.17218874E-1,9.803922E-3,-4.8442356E-2,1.5929492E-1,1.01E2,3.3756706E-3,-5.099985E-2,-0E0,4.9958702E-2],"split_indices":[148,301,0,23,307,0,0,0,0],"split_type":[0,0,0,0,0,0,0,0,0],"sum_hessian":[3.5374493E2,2.7867984E2,7.506511E1,2.0304558E2,7.563426E1,1.818573E2,2.1188278E1,2.2276332E0,7.340663E1],"tree_param":{"num_deleted":"0","num_feature":"316","num_nodes":"9","size_leaf_vector":"1"}},{"base_weights":[-1.6266372E-2,1.8699989E-1,-4.7545224E-2,-5.693486E-1,3.8264725E-1,-4.3587886E-2,-0E0,-0E0,4.375183E-2],"categories":[],"categories_nodes":[],"categories_segments":[],"categories_sizes":[],"default_left":[0,0,0,0,0,0,0,0,0],"id":44,"left_children":[1,3,-1,5,7,-1,-1,-1,-1],"loss_changes":[7.379818E1,3.9387028E1,0E0,1.2723485E1,3.6479725E1,0E0,0E0,0E0,0E0],"parents":[2147483647,0,0,1,1,3,3,4,4],"right_children":[2,4,-1,6,8,-1,-1,-1,-1],"split_conditions":[1.17218874E-1,7.041352E-4,-4.7545224E-2,1.2980445E-1,1E0,-4.3587886E-2,-0E0,-0E0,4.375183E-2],"split_indices":[148,300,0,77,311,0,0,0,0],"split_type":[0,0,0,0,0,0,0,0,0],"sum_hessian":[3.4630594E2,2.7631354E2,6.999242E1,4.5889183E1,2.3042435E2,3.5742626E1,1.0146558E1,1.395272E2,9.089714E1],"tree_param":{"num_deleted":"0","num_feature":"316","num_nodes":"9","size_leaf_vector":"1"}},{"base_weights":[-0E0,2.3866288E-1,-4.739399E-2,-0E0,4.8925888E-2,-1.9051341E-2,1.3034026E-2],"categories":[],"categories_nodes":[],"categories_segments":[],"categories_sizes":[],"default_left":[0,0,0,0,0,0,0],"id":45,"left_children":[1,3,-1,5,-1,-1,-1],"loss_changes":[7.9301315E1,5.5720142E1,0E0,2.0900164E1,0E0,0E0,0E0],"parents":[2147483647,0,0,1,1,3,3],"right_children":[2,4,-1,6,-1,-1,-1],"split_conditions":[1.17218874E-1,9.803922E-3,-4.739399E-2,1E0,4.8925888E-2,-1.9051341E-2,1.3034026E-2],"split_indices":[148,301,0,309,0,0,0],"split_type":[0,0,0,0,0,0,0],"sum_hessian":[3.4266586E2,2.7275916E2,6.990674E1,1.992801E2,7.347904E1,9.252039E1,1.0675971E2],"tree_param":{"num_deleted":"0","num_feature":"316","num_nodes":"7","size_leaf_vector":"1"}},{"base_weights":[-0E0,2.273424E-1,-4.672917E-2,-0E0,9.477582E-1,1.5276827E-2,-1.971007E-2,-0E0,4.8896424E-2],"categories":[],"categories_nodes":[],"categories_segments":[],"categories_sizes":[],"default_left":[0,0,0,0,0,0,0,0,0],"id":46,"left_children":[1,3,-1,5,7,-1,-1,-1,-1],"loss_changes":[7.310754E1,4.943908E1,0E0,2.4502014E1,1.5693207E0,0E0,0E0,0E0,0E0],"parents":[2147483647,0,0,1,1,3,3,4,4],"right_children":[2,4,-1,6,8,-1,-1,-1,-1],"split_conditions":[1.17218874E-1,9.803922E-3,-4.672917E-2,1.15603305E-1,1.01E2,1.5276827E-2,-1.971007E-2,-0E0,4.8896424E-2],"split_indices":[148,301,0,79,307,0,0,0,0],"split_type":[0,0,0,0,0,0,0,0,0],"sum_hessian":[3.3336298E2,2.6649118E2,6.687182E1,1.9706027E2,6.94309E1,1.0265375E2,9.4406525E1,2.6377616E0,6.679314E1],"tree_param":{"num_deleted":"0","num_feature":"316","num_nodes":"9","size_leaf_vector":"1"}},{"base_weights":[-0E0,2.1147841E-1,-4.6095643E-2,-5.6534866E-3,4.869287E-2,-2.2087127E-2,1.198947E-2],"categories":[],"categories_nodes":[],"categories_segments":[],"categories_sizes":[],"default_left":[0,0,0,0,0,0,0],"id":47,"left_children":[1,3,-1,5,-1,-1,-1],"loss_changes":[6.703495E1,5.4492424E1,0E0,2.3687653E1,0E0,0E0,0E0],"parents":[2147483647,0,0,1,1,3,3],"right_children":[2,4,-1,6,-1,-1,-1],"split_conditions":[1.17218874E-1,9.803922E-3,-4.6095643E-2,8.866199E-2,4.869287E-2,-2.2087127E-2,1.198947E-2],"split_indices":[148,301,0,271,0,0,0],"split_type":[0,0,0,0,0,0,0],"sum_hessian":[3.332935E2,2.6966412E2,6.362937E1,2.0045004E2,6.921409E1,8.6573685E1,1.1387635E2],"tree_param":{"num_deleted":"0","num_feature":"316","num_nodes":"7","size_leaf_vector":"1"}},{"base_weights":[-0E0,2.1833941E-1,-4.5693856E-2,-0E0,9.170561E-1,-1.7033912E-2,1.5238014E-2,-0E0,4.783299E-2],"categories":[],"categories_nodes":[],"categories_segments":[],"categories_sizes":[],"default_left":[0,0,0,0,0,0,0,0,0],"id":48,"left_children":[1,3,-1,5,7,-1,-1,-1,-1],"loss_changes":[6.5173584E1,4.3988495E1,0E0,2.0751942E1,2.6505966E0,0E0,0E0,0E0,0E0],"parents":[2147483647,0,0,1,1,3,3,4,4],"right_children":[2,4,-1,6,8,-1,-1,-1,-1],"split_conditions":[1.17218874E-1,9.803922E-3,-4.5693856E-2,1.979E3,6.001152E-4,-1.7033912E-2,1.5238014E-2,-0E0,4.783299E-2],"split_indices":[148,301,0,307,300,0,0,0,0],"split_type":[0,0,0,0,0,0,0,0,0],"sum_hessian":[3.2469388E2,2.6271045E2,6.1983425E1,1.9645639E2,6.625407E1,9.905444E1,9.740195E1,2.5568862E0,6.3697186E1],"tree_param":{"num_deleted":"0","num_feature":"316","num_nodes":"9","size_leaf_vector":"1"}},{"base_weights":[-1.4109454E-2,1.5002169E-1,-4.5094635E-2,-4.9145516E-2,9.086836E-1,-2.0440817E-2,1.2108676E-2,-0E0,4.716467E-2],"categories":[],"categories_nodes":[],"categories_segments":[],"categories_sizes":[],"default_left":[0,0,0,0,0,0,0,0,0],"id":49,"left_children":[1,3,-1,5,7,-1,-1,-1,-1],"loss_changes":[5.48782E1,4.8662563E1,0E0,2.2753193E1,1.6365662E0,0E0,0E0,0E0,0E0],"parents":[2147483647,0,0,1,1,3,3,4,4],"right_children":[2,4,-1,6,8,-1,-1,-1,-1],"split_conditions":[1.17218874E-1,9.803922E-3,-4.5094635E-2,9.26311E-2,6.001152E-4,-2.0440817E-2,1.2108676E-2,-0E0,4.716467E-2],"split_indices":[148,301,0,264,300,0,0,0,0],"split_type":[0,0,0,0,0,0,0,0,0],"sum_hessian":[3.2309067E2,2.638734E2,5.921725E1,1.993051E2,6.456832E1,1.04370094E2,9.4935005E1,2.8839447E0,6.1684376E1],"tree_param":{"num_deleted":"0","num_feature":"316","num_nodes":"9","size_leaf_vector":"1"}},{"base_weights":[-0E0,1.7773882E-1,-4.461985E-2,-0E0,9.0325505E-1,-2.3259161E-2,1.2618981E-2,-0E0,4.645825E-2],"categories":[],"categories_nodes":[],"categories_segments":[],"categories_sizes":[],"default_left":[0,0,0,0,0,0,0,0,0],"id":50,"left_children":[1,3,-1,5,7,-1,-1,-1,-1],"loss_changes":[5.452842E1,4.1879665E1,0E0,2.540862E1,9.9645996E-1,0E0,0E0,0E0,0E0],"parents":[2147483647,0,0,1,1,3,3,4,4],"right_children":[2,4,-1,6,8,-1,-1,-1,-1],"split_conditions":[1.17218874E-1,9.803922E-3,-4.461985E-2,3.6006914E-3,5.361029E-4,-2.3259161E-2,1.2618981E-2,-0E0,4.645825E-2],"split_indices":[148,301,0,300,300,0,0,0,0],"split_type":[0,0,0,0,0,0,0,0,0],"sum_hessian":[3.1487357E2,2.5766342E2,5.7210155E1,1.9731645E2,6.034696E1,8.2255196E1,1.15061264E2,2.2194576E0,5.8127502E1],"tree_param":{"num_deleted":"0","num_feature":"316","num_nodes":"9","size_leaf_vector":"1"}},{"base_weights":[-0E0,1.8602675E-1,-4.3998707E-2,-0E0,4.53113E-2,1.4055423E-2,-2.0364223E-2],"categories":[],"categories_nodes":[],"categories_segments":[],"categories_sizes":[],"default_left":[0,0,0,0,0,0,0],"id":51,"left_children":[1,3,-1,5,-1,-1,-1],"loss_changes":[5.2121223E1,4.238684E1,0E0,2.3511347E1,0E0,0E0,0E0],"parents":[2147483647,0,0,1,1,3,3],"right_children":[2,4,-1,6,-1,-1,-1],"split_conditions":[1.17218874E-1,9.803922E-3,-4.3998707E-2,1.15603305E-1,4.53113E-2,1.4055423E-2,-2.0364223E-2],"split_indices":[148,301,0,79,0,0,0],"split_type":[0,0,0,0,0,0,0],"sum_hessian":[3.097708E2,2.5489764E2,5.4873184E1,1.9350165E2,6.139599E1,1.0167932E2,9.182233E1],"tree_param":{"num_deleted":"0","num_feature":"316","num_nodes":"7","size_leaf_vector":"1"}},{"base_weights":[-0E0,1.7506756E-1,-4.351769E-2,-0E0,8.83685E-1,-1.8140309E-2,1.3552268E-2,-0E0,4.5278024E-2],"categories":[],"categories_nodes":[],"categories_segments":[],"categories_sizes":[],"default_left":[0,0,0,0,0,0,0,0,0],"id":52,"left_children":[1,3,-1,5,7,-1,-1,-1,-1],"loss_changes":[4.844588E1,3.7894833E1,0E0,1.9850544E1,5.9914017E-1,0E0,0E0,0E0,0E0],"parents":[2147483647,0,0,1,1,3,3,4,4],"right_children":[2,4,-1,6,8,-1,-1,-1,-1],"split_conditions":[1.17218874E-1,9.803922E-3,-4.351769E-2,1.979E3,8.4E1,-1.8140309E-2,1.3552268E-2,-0E0,4.5278024E-2],"split_indices":[148,301,0,307,307,0,0,0,0],"split_type":[0,0,0,0,0,0,0,0,0],"sum_hessian":[3.0292105E2,2.5012791E2,5.279314E1,1.9274449E2,5.7383427E1,9.431064E1,9.843385E1,2.0560277E0,5.53274E1],"tree_param":{"num_deleted":"0","num_feature":"316","num_nodes":"9","size_leaf_vector":"1"}},{"base_weights":[-0E0,1.5047234E-1,-4.2786114E-2,-4.862299E-3,8.7270075E-1,2.8557505E-3,-5.01512E-2,-0E0,4.5492537E-2],"categories":[],"categories_nodes":[],"categories_segments":[],"categories_sizes":[],"default_left":[0,0,0,0,0,0,0,0,0],"id":53,"left_children":[1,3,-1,5,7,-1,-1,-1,-1],"loss_changes":[4.3160587E1,3.7291885E1,0E0,2.1856508E1,1.9046555E0,0E0,0E0,0E0,0E0],"parents":[2147483647,0,0,1,1,3,3,4,4],"right_children":[2,4,-1,6,8,-1,-1,-1,-1],"split_conditions":[1.17218874E-1,9.803922E-3,-4.2786114E-2,1.5929492E-1,1.01E2,2.8557505E-3,-5.01512E-2,-0E0,4.5492537E-2],"split_indices":[148,301,0,23,307,0,0,0,0],"split_type":[0,0,0,0,0,0,0,0,0],"sum_hessian":[3.0407022E2,2.5401382E2,5.0056396E1,1.984739E2,5.553992E1,1.7832576E2,2.0148142E1,2.222103E0,5.3317818E1],"tree_param":{"num_deleted":"0","num_feature":"316","num_nodes":"9","size_leaf_vector":"1"}},{"base_weights":[-0E0,1.6986442E-1,-4.2386882E-2,4.8887664E-1,-2.0090817E-1,-0E0,3.6328156E-2,-4.1614328E-2,1.2784858E-2],"categories":[],"categories_nodes":[],"categories_segments":[],"categories_sizes":[],"default_left":[0,0,0,0,0,0,0,0,0],"id":54,"left_children":[1,3,-1,5,7,-1,-1,-1,-1],"loss_changes":[4.301679E1,3.2125053E1,0E0,1.73157E1,3.485891E1,0E0,0E0,0E0,0E0],"parents":[2147483647,0,0,1,1,3,3,4,4],"right_children":[2,4,-1,6,8,-1,-1,-1,-1],"split_conditions":[1.17218874E-1,1.22081906E-1,-4.2386882E-2,1E0,2E0,-0E0,3.6328156E-2,-4.1614328E-2,1.2784858E-2],"split_indices":[148,79,0,309,315,0,0,0,0],"split_type":[0,0,0,0,0,0,0,0,0],"sum_hessian":[2.9438617E2,2.4542296E2,4.896322E1,1.462456E2,9.9177345E1,4.777969E1,9.846592E1,5.0468792E1,4.8708553E1],"tree_param":{"num_deleted":"0","num_feature":"316","num_nodes":"9","size_leaf_vector":"1"}},{"base_weights":[-0E0,1.4490849E-1,-4.1822072E-2,-9.719841E-3,8.6342025E-1,-1.888298E-2,1.2993722E-2,-0E0,4.4264164E-2],"categories":[],"categories_nodes":[],"categories_segments":[],"categories_sizes":[],"default_left":[0,0,0,0,0,0,0,0,0],"id":55,"left_children":[1,3,-1,5,7,-1,-1,-1,-1],"loss_changes":[3.894937E1,3.6117947E1,0E0,2.0495775E1,2.7479553E-1,0E0,0E0,0E0,0E0],"parents":[2147483647,0,0,1,1,3,3,4,4],"right_children":[2,4,-1,6,8,-1,-1,-1,-1],"split_conditions":[1.17218874E-1,9.803922E-3,-4.1822072E-2,1.979E3,1.01E2,-1.888298E-2,1.2993722E-2,-0E0,4.4264164E-2],"split_indices":[148,301,0,307,307,0,0,0,0],"split_type":[0,0,0,0,0,0,0,0,0],"sum_hessian":[2.943952E2,2.4717268E2,4.7222515E1,1.927586E2,5.4414074E1,9.702785E1,9.573077E1,2.3525937E0,5.206148E1],"tree_param":{"num_deleted":"0","num_feature":"316","num_nodes":"9","size_leaf_vector":"1"}},{"base_weights":[-0E0,1.4846566E-1,-4.1421928E-2,-5.682293E-4,8.558538E-1,2.6598922E-3,-4.788324E-2,-0E0,4.3927904E-2],"categories":[],"categories_nodes":[],"categories_segments":[],"categories_sizes":[],"default_left":[0,0,0,0,0,0,0,0,0],"id":56,"left_children":[1,3,-1,5,7,-1,-1,-1,-1],"loss_changes":[3.762364E1,3.462786E1,0E0,1.9058712E1,4.421463E-1,0E0,0E0,0E0,0E0],"parents":[2147483647,0,0,1,1,3,3,4,4],"right_children":[2,4,-1,6,8,-1,-1,-1,-1],"split_conditions":[1.17218874E-1,9.803922E-3,-4.1421928E-2,1.5929492E-1,1.01E2,2.6598922E-3,-4.788324E-2,-0E0,4.3927904E-2],"split_indices":[148,301,0,23,307,0,0,0,0],"split_type":[0,0,0,0,0,0,0,0,0],"sum_hessian":[2.9220493E2,2.4632816E2,4.587677E1,1.9261116E2,5.3717003E1,1.7336813E2,1.9243017E1,2.2187026E0,5.14983E1],"tree_param":{"num_deleted":"0","num_feature":"316","num_nodes":"9","size_leaf_vector":"1"}},{"base_weights":[-0E0,1.535727E-1,-4.0551018E-2,-0E0,8.198404E-1,4.0396857E-3,-4.6961725E-2,-0E0,4.333909E-2],"categories":[],"categories_nodes":[],"categories_segments":[],"categories_sizes":[],"default_left":[0,0,0,0,0,0,0,0,0],"id":57,"left_children":[1,3,-1,5,7,-1,-1,-1,-1],"loss_changes":[3.4726635E1,2.887224E1,0E0,1.8911236E1,2.0883713E0,0E0,0E0,0E0,0E0],"parents":[2147483647,0,0,1,1,3,3,4,4],"right_children":[2,4,-1,6,8,-1,-1,-1,-1],"split_conditions":[1.17218874E-1,9.803922E-3,-4.0551018E-2,1.5929492E-1,6.001152E-4,4.0396857E-3,-4.6961725E-2,-0E0,4.333909E-2],"split_indices":[148,301,0,23,300,0,0,0,0],"split_type":[0,0,0,0,0,0,0,0,0],"sum_hessian":[2.8425214E2,2.4113852E2,4.3113613E1,1.9068634E2,5.045218E1,1.7152556E2,1.9160769E1,2.6423469E0,4.780983E1],"tree_param":{"num_deleted":"0","num_feature":"316","num_nodes":"9","size_leaf_vector":"1"}},{"base_weights":[3.5894425E-3,1.8689042E-1,-4.0053155E-2,3.318824E-1,-3.8825586E-2,-0E0,4.0987838E-2],"categories":[],"categories_nodes":[],"categories_segments":[],"categories_sizes":[],"default_left":[0,0,0,0,0,0,0],"id":58,"left_children":[1,3,-1,5,-1,-1,-1],"loss_changes":[3.6067055E1,2.978074E1,0E0,3.5254673E1,0E0,0E0,0E0],"parents":[2147483647,0,0,1,1,3,3],"right_children":[2,4,-1,6,-1,-1,-1],"split_conditions":[1.17218874E-1,2.3841836E-1,-4.0053155E-2,1.979E3,-3.8825586E-2,-0E0,4.0987838E-2],"split_indices":[148,3,0,307,0,0,0],"split_type":[0,0,0,0,0,0,0],"sum_hessian":[2.8415863E2,2.4218419E2,4.1974438E1,2.2009525E2,2.2088932E1,1.3239389E2,8.770136E1],"tree_param":{"num_deleted":"0","num_feature":"316","num_nodes":"7","size_leaf_vector":"1"}},{"base_weights":[-0E0,1.1913265E-1,-3.95759E-2,-6.6237345E-2,6.276743E-1,-2.1282531E-2,8.645487E-3,3.9238676E-2,-0E0],"categories":[],"categories_nodes":[],"categories_segments":[],"categories_sizes":[],"default_left":[0,0,0,0,0,0,0,0,0],"id":59,"left_children":[1,3,-1,5,7,-1,-1,-1,-1],"loss_changes":[2.9602823E1,2.896772E1,0E0,1.7017344E1,1.411063E1,0E0,0E0,0E0,0E0],"parents":[2147483647,0,0,1,1,3,3,4,4],"right_children":[2,4,-1,6,8,-1,-1,-1,-1],"split_conditions":[1.17218874E-1,1E0,-3.95759E-2,1.996E3,1.985708E-1,-2.1282531E-2,8.645487E-3,3.9238676E-2,-0E0],"split_indices":[148,311,0,307,225,0,0,0,0],"split_type":[0,0,0,0,0,0,0,0,0],"sum_hessian":[2.8694058E2,2.462916E2,4.0648975E1,1.6672417E2,7.956744E1,8.300766E1,8.371651E1,7.345114E1,6.11629E0],"tree_param":{"num_deleted":"0","num_feature":"316","num_nodes":"9","size_leaf_vector":"1"}},{"base_weights":[-0E0,-1.8908042E-1,3.7203717E-1,-4.8776016E-1,2.1126712E-2,-0E0,5.7471466E-1,-3.2718931E-3,-5.985065E-2,-9.924938E-3,4.7518685E-2,-1.0288819E-2,-0E0,3.2903217E-2,-0E0],"categories":[],"categories_nodes":[],"categories_segments":[],"categories_sizes":[],"default_left":[0,0,0,0,0,0,0,0,0,0,0,0,0,0,0],"id":60,"left_children":[1,3,5,7,9,11,13,-1,-1,-1,-1,-1,-1,-1,-1],"loss_changes":[1.929004E1,1.6456942E1,1.2424711E1,1.6410961E1,2.6367668E1,4.652795E-1,6.877596E0,0E0,0E0,0E0,0E0,0E0,0E0,0E0,0E0],"parents":[2147483647,0,0,1,1,2,2,3,3,4,4,5,5,6,6],"right_children":[2,4,6,8,10,12,14,-1,-1,-1,-1,-1,-1,-1,-1],"split_conditions":[1E0,1.979E3,7.041352E-4,1.969E3,1.1052339E-1,1.2980445E-1,2.2317562E-1,-3.2718931E-3,-5.985065E-2,-9.924938E-3,4.7518685E-2,-1.0288819E-2,-0E0,3.2903217E-2,-0E0],"split_indices":[311,307,300,307,6,93,23,0,0,0,0,0,0,0,0],"split_type":[0,0,0,0,0,0,0,0,0,0,0,0,0,0,0],"sum_hessian":[2.7653308E2,1.8663043E2,8.990265E1,9.619721E1,9.043323E1,1.5192909E1,7.470974E1,6.9816696E1,2.6380514E1,6.507733E1,2.5355896E1,9.988107E0,5.204802E0,7.262751E1,2.0822296E0],"tree_param":{"num_deleted":"0","num_feature":"316","num_nodes":"15","size_leaf_vector":"1"}},{"base_weights":[-3.840079E-3,8.230343E-2,-3.869812E-2,-4.677977E-2,4.1835662E-2,-2.1008534E-2,1.0256028E-2],"categories":[],"categories_nodes":[],"categories_segments":[],"categories_sizes":[],"default_left":[0,0,0,0,0,0,0],"id":61,"left_children":[1,3,-1,5,-1,-1,-1],"loss_changes":[2.516069E1,3.0891325E1,0E0,2.0191402E1,0E0,0E0,0E0],"parents":[2147483647,0,0,1,1,3,3],"right_children":[2,4,-1,6,-1,-1,-1],"split_conditions":[1.17218874E-1,9.803922E-3,-3.869812E-2,9.130613E-2,4.1835662E-2,-2.1008534E-2,1.0256028E-2],"split_indices":[148,301,0,271,0,0,0],"split_type":[0,0,0,0,0,0,0],"sum_hessian":[2.7304462E2,2.3469997E2,3.834464E1,1.8989125E2,4.480872E1,9.222166E1,9.766959E1],"tree_param":{"num_deleted":"0","num_feature":"316","num_nodes":"7","size_leaf_vector":"1"}},{"base_weights":[-0E0,-5.6300396E-1,9.569204E-2,-8.410244E-1,-0E0,-6.0317684E-2,5.567016E-1,-4.3514553E-2,-0E0,-2.37649E-2,1.3710611E-2,3.1651776E-2,-0E0],"categories":[],"categories_nodes":[],"categories_segments":[],"categories_sizes":[],"default_left":[0,0,0,0,0,0,0,0,0,0,0,0,0],"id":62,"left_children":[1,3,5,7,-1,9,11,-1,-1,-1,-1,-1,-1],"loss_changes":[1.7555668E1,1.1271534E1,2.1150198E1,3.3270454E-1,0E0,2.3311357E1,5.7852535E0,0E0,0E0,0E0,0E0,0E0,0E0],"parents":[2147483647,0,0,1,1,2,2,3,3,5,5,6,6],"right_children":[2,4,6,8,-1,10,12,-1,-1,-1,-1,-1,-1],"split_conditions":[7.041352E-4,1.2980445E-1,1E0,2.2854704E-1,-0E0,1.979E3,2.1296383E-1,-4.3514553E-2,-0E0,-2.37649E-2,1.3710611E-2,3.1651776E-2,-0E0],"split_indices":[300,77,311,39,0,307,23,0,0,0,0,0,0],"split_type":[0,0,0,0,0,0,0,0,0,0,0,0,0],"sum_hessian":[2.7148477E2,4.7897236E1,2.2358754E2,3.6847908E1,1.1049327E1,1.514972E2,7.2090355E1,3.4784435E1,2.0634751E0,8.077217E1,7.072501E1,6.996274E1,2.1276207E0],"tree_param":{"num_deleted":"0","num_feature":"316","num_nodes":"13","size_leaf_vector":"1"}},{"base_weights":[-1.9687338E-2,5.2333545E-2,-3.7642393E-2,-6.0801424E-2,3.9740503E-2,-2.057453E-2,1.0220378E-2],"categories":[],"categories_nodes":[],"categories_segments":[],"categories_sizes":[],"default_left":[0,0,0,0,0,0,0],"id":63,"left_children":[1,3,-1,5,-1,-1,-1],"loss_changes":[2.1386337E1,2.7198225E1,0E0,2.0187777E1,0E0,0E0,0E0],"parents":[2147483647,0,0,1,1,3,3],"right_children":[2,4,-1,6,-1,-1,-1],"split_conditions":[1.17218874E-1,9.803922E-3,-3.7642393E-2,1.979E3,3.9740503E-2,-2.057453E-2,1.0220378E-2],"split_indices":[148,301,0,307,0,0,0],"split_type":[0,0,0,0,0,0,0],"sum_hessian":[2.7061017E2,2.3483095E2,3.5779213E1,1.9288911E2,4.1941837E1,9.9058E1,9.3831116E1],"tree_param":{"num_deleted":"0","num_feature":"316","num_nodes":"7","size_leaf_vector":"1"}},{"base_weights":[-0E0,9.7810306E-2,-3.766822E-2,-1.0294722E-3,7.5876623E-1,1.842951E-3,-4.3939367E-2,-0E0,4.0397678E-2],"categories":[],"categories_nodes":[],"categories_segments":[],"categories_sizes":[],"default_left":[0,0,0,0,0,0,0,0,0],"id":64,"left_children":[1,3,-1,5,7,-1,-1,-1,-1],"loss_changes":[2.3194208E1,2.2599325E1,0E0,1.4699258E1,1.360527E0,0E0,0E0,0E0,0E0],"parents":[2147483647,0,0,1,1,3,3,4,4],"right_children":[2,4,-1,6,8,-1,-1,-1,-1],"split_conditions":[1.17218874E-1,9.803922E-3,-3.766822E-2,1.5929492E-1,6.001152E-4,1.842951E-3,-4.3939367E-2,-0E0,4.0397678E-2],"split_indices":[148,301,0,23,300,0,0,0,0],"split_type":[0,0,0,0,0,0,0,0,0],"sum_hessian":[2.6492307E2,2.2893217E2,3.5990906E1,1.8685812E2,4.2074047E1,1.6912325E2,1.7734875E1,3.0007854E0,3.907326E1],"tree_param":{"num_deleted":"0","num_feature":"316","num_nodes":"9","size_leaf_vector":"1"}},{"base_weights":[-0E0,1.2222821E-1,-3.6940575E-2,4.0764442E-1,-1.8030477E-1,-0E0,3.4526538E-2,-2.4018673E-2,1.504038E-2],"categories":[],"categories_nodes":[],"categories_segments":[],"categories_sizes":[],"default_left":[0,0,0,0,0,0,0,0,0],"id":65,"left_children":[1,3,-1,5,7,-1,-1,-1,-1],"loss_changes":[2.2867165E1,2.2026312E1,0E0,2.008135E1,1.5557101E1,0E0,0E0,0E0,0E0],"parents":[2147483647,0,0,1,1,3,3,4,4],"right_children":[2,4,-1,6,8,-1,-1,-1,-1],"split_conditions":[1.17218874E-1,1.22081906E-1,-3.6940575E-2,1E0,1E0,-0E0,3.4526538E-2,-2.4018673E-2,1.504038E-2],"split_indices":[148,79,0,309,312,0,0,0,0],"split_type":[0,0,0,0,0,0,0,0,0],"sum_hessian":[2.6156415E2,2.2690866E2,3.4655468E1,1.3358679E2,9.332188E1,4.5569878E1,8.801691E1,7.0276985E1,2.3044893E1],"tree_param":{"num_deleted":"0","num_feature":"316","num_nodes":"9","size_leaf_vector":"1"}},{"base_weights":[-0E0,-1.5043546E-1,3.792993E-1,-4.48832E-1,5.106132E-2,-1.801903E-2,5.971522E-1,-2.3079328E-3,-5.6487948E-2,-8.323762E-3,4.8156943E-2,-6.7129033E-3,-0E0,3.381849E-2,-0E0],"categories":[],"categories_nodes":[],"categories_segments":[],"categories_sizes":[],"default_left":[0,0,0,0,0,0,0,0,0,0,0,0,0,0,0],"id":66,"left_children":[1,3,5,7,9,11,13,-1,-1,-1,-1,-1,-1,-1,-1],"loss_changes":[1.5808538E1,1.5015698E1,1.281878E1,1.3949095E1,2.603338E1,1.9697419E-1,6.008713E0,0E0,0E0,0E0,0E0,0E0,0E0,0E0,0E0],"parents":[2147483647,0,0,1,1,2,2,3,3,4,4,5,5,6,6],"right_children":[2,4,6,8,10,12,14,-1,-1,-1,-1,-1,-1,-1,-1],"split_conditions":[1E0,1.979E3,7.041352E-4,1.969E3,1.1052339E-1,8E2,2.2118507E-1,-2.3079328E-3,-5.6487948E-2,-8.323762E-3,4.8156943E-2,-6.7129033E-3,-0E0,3.381849E-2,-0E0],"split_indices":[311,307,300,307,6,307,23,0,0,0,0,0,0,0,0],"split_type":[0,0,0,0,0,0,0,0,0,0,0,0,0,0,0],"sum_hessian":[2.6226443E2,1.8220001E2,8.006441E1,9.29506E1,8.924942E1,1.2422713E1,6.764169E1,6.8309E1,2.46416E1,6.3869595E1,2.5379826E1,1.01694765E1,2.2532365E0,6.56389E1,2.002788E0],"tree_param":{"num_deleted":"0","num_feature":"316","num_nodes":"15","size_leaf_vector":"1"}},{"base_weights":[-0E0,1.0276798E-1,-3.6850784E-2,-3.9441343E-2,5.7346255E-1,-1.9268349E-2,8.79462E-3,3.703346E-2,-0E0],"categories":[],"categories_nodes":[],"categories_segments":[],"categories_sizes":[],"default_left":[0,0,0,0,0,0,0,0,0],"id":67,"left_children":[1,3,-1,5,7,-1,-1,-1,-1],"loss_changes":[2.1632156E1,2.0430664E1,0E0,1.3894182E1,1.2229942E1,0E0,0E0,0E0,0E0],"parents":[2147483647,0,0,1,1,3,3,4,4],"right_children":[2,4,-1,6,8,-1,-1,-1,-1],"split_conditions":[1.17218874E-1,1E0,-3.6850784E-2,1.979E3,1.985708E-1,-1.9268349E-2,8.79462E-3,3.703346E-2,-0E0],"split_indices":[148,311,0,307,225,0,0,0,0],"split_type":[0,0,0,0,0,0,0,0,0],"sum_hessian":[2.585516E2,2.2410416E2,3.4447453E1,1.5649414E2,6.761002E1,7.755493E1,7.893921E1,6.2422478E1,5.1875477E0],"tree_param":{"num_deleted":"0","num_feature":"316","num_nodes":"9","size_leaf_vector":"1"}},{"base_weights":[-0E0,7.67039E-2,-3.5877552E-2,-2.6120725E-1,3.5540166E-1,-2.8353397E-2,9.929473E-4,-2.4323773E-2,2.5771782E-2],"categories":[],"categories_nodes":[],"categories_segments":[],"categories_sizes":[],"default_left":[0,0,0,0,0,0,0,0,0],"id":68,"left_children":[1,3,-1,5,7,-1,-1,-1,-1],"loss_changes":[1.8538012E1,2.220216E1,0E0,1.2872186E1,1.9377708E1,0E0,0E0,0E0,0E0],"parents":[2147483647,0,0,1,1,3,3,4,4],"right_children":[2,4,-1,6,8,-1,-1,-1,-1],"split_conditions":[1.17218874E-1,3.6006914E-3,-3.5877552E-2,2E0,3E0,-2.8353397E-2,9.929473E-4,-2.4323773E-2,2.5771782E-2],"split_indices":[148,300,0,315,308,0,0,0,0],"split_type":[0,0,0,0,0,0,0,0,0],"sum_hessian":[2.5620245E2,2.2376628E2,3.2436176E1,8.4949554E1,1.3881673E2,5.723106E1,2.7718493E1,1.1866272E1,1.2695046E2],"tree_param":{"num_deleted":"0","num_feature":"316","num_nodes":"9","size_leaf_vector":"1"}},{"base_weights":[-1.3414413E-2,4.3088395E-2,-3.540409E-2,-3.012079E-1,3.2588232E-1,-0E0,-2.6608128E-2,-0E0,4.3683764E-2],"categories":[],"categories_nodes":[],"categories_segments":[],"categories_sizes":[],"default_left":[0,0,0,0,0,0,0,0,0],"id":69,"left_children":[1,3,-1,5,7,-1,-1,-1,-1],"loss_changes":[1.6765158E1,2.2274876E1,0E0,1.1053026E1,2.7823624E1,0E0,0E0,0E0,0E0],"parents":[2147483647,0,0,1,1,3,3,4,4],"right_children":[2,4,-1,6,8,-1,-1,-1,-1],"split_conditions":[1.17218874E-1,3.6006914E-3,-3.540409E-2,1.52E2,1.979E3,-0E0,-2.6608128E-2,-0E0,4.3683764E-2],"split_indices":[148,300,0,306,307,0,0,0,0],"split_type":[0,0,0,0,0,0,0,0,0],"sum_hessian":[2.5593109E2,2.242349E2,3.1696209E1,8.514541E1,1.3908948E2,1.9518032E1,6.562737E1,8.4147446E1,5.494203E1],"tree_param":{"num_deleted":"0","num_feature":"316","num_nodes":"9","size_leaf_vector":"1"}},{"base_weights":[-0E0,8.743613E-2,-3.479697E-2,-0E0,7.1670383E-1,8.748307E-3,-1.5579223E-2,-0E0,3.856637E-2],"categories":[],"categories_nodes":[],"categories_segments":[],"categories_sizes":[],"default_left":[0,0,0,0,0,0,0,0,0],"id":70,"left_children":[1,3,-1,5,7,-1,-1,-1,-1],"loss_changes":[1.702335E1,1.8212605E1,0E0,1.0927201E1,7.576065E-1,0E0,0E0,0E0,0E0],"parents":[2147483647,0,0,1,1,3,3,4,4],"right_children":[2,4,-1,6,8,-1,-1,-1,-1],"split_conditions":[1.17218874E-1,9.803922E-3,-3.479697E-2,1.15603305E-1,5.3683523E-2,8.748307E-3,-1.5579223E-2,-0E0,3.856637E-2],"split_indices":[148,301,0,79,271,0,0,0,0],"split_type":[0,0,0,0,0,0,0,0,0],"sum_hessian":[2.4447476E2,2.1371588E2,3.0758875E1,1.7606395E2,3.765194E1,9.46815E1,8.138244E1,4.007225E0,3.3644714E1],"tree_param":{"num_deleted":"0","num_feature":"316","num_nodes":"9","size_leaf_vector":"1"}},{"base_weights":[-1.3356965E-2,3.4574162E-2,-3.419857E-2,-5.44184E-2,7.2961575E-1,-1.4324293E-2,1.4610636E-2,-0E0,3.8945455E-2],"categories":[],"categories_nodes":[],"categories_segments":[],"categories_sizes":[],"default_left":[0,0,0,0,0,0,0,0,0],"id":71,"left_children":[1,3,-1,5,7,-1,-1,-1,-1],"loss_changes":[1.4630974E1,2.0560862E1,0E0,1.4949849E1,1.5696602E0,0E0,0E0,0E0,0E0],"parents":[2147483647,0,0,1,1,3,3,4,4],"right_children":[2,4,-1,6,8,-1,-1,-1,-1],"split_conditions":[1.17218874E-1,9.803922E-3,-3.419857E-2,1.5242654E-1,1.01E2,-1.4324293E-2,1.4610636E-2,-0E0,3.8945455E-2],"split_indices":[148,301,0,163,307,0,0,0,0],"split_type":[0,0,0,0,0,0,0,0,0],"sum_hessian":[2.5141194E2,2.2160948E2,2.9802446E1,1.8451802E2,3.709146E1,1.2790741E2,5.6610615E1,2.081482E0,3.500998E1],"tree_param":{"num_deleted":"0","num_feature":"316","num_nodes":"9","size_leaf_vector":"1"}},{"base_weights":[-0E0,8.202319E-2,-3.275743E-2,-0E0,7.003707E-1,2.0344646E-3,-4.266272E-2,-0E0,3.744676E-2],"categories":[],"categories_nodes":[],"categories_segments":[],"categories_sizes":[],"default_left":[0,0,0,0,0,0,0,0,0],"id":72,"left_children":[1,3,-1,5,7,-1,-1,-1,-1],"loss_changes":[1.3760922E1,1.6917229E1,0E0,1.3172707E1,1.479166E0,0E0,0E0,0E0,0E0],"parents":[2147483647,0,0,1,1,3,3,4,4],"right_children":[2,4,-1,6,8,-1,-1,-1,-1],"split_conditions":[1.17218874E-1,9.803922E-3,-3.275743E-2,1.5929492E-1,1.01E2,2.0344646E-3,-4.266272E-2,-0E0,3.744676E-2],"split_indices":[148,301,0,23,307,0,0,0,0],"split_type":[0,0,0,0,0,0,0,0,0],"sum_hessian":[2.431818E2,2.1551523E2,2.7666555E1,1.7905716E2,3.645807E1,1.623353E2,1.6721869E1,2.0632932E0,3.4394775E1],"tree_param":{"num_deleted":"0","num_feature":"316","num_nodes":"9","size_leaf_vector":"1"}},{"base_weights":[-0E0,1.7835757E-1,-2.6861596E-1,6.217945E-1,-0E0,-7.364272E-1,5.072075E-2,3.63683E-2,-0E0,-2.1645203E-2,2.3640081E-2,-4.4238545E-2,-0E0,-2.4797995E-2,4.1838683E-2],"categories":[],"categories_nodes":[],"categories_segments":[],"categories_sizes":[],"default_left":[0,0,0,0,0,0,0,0,0,0,0,0,0,0,0],"id":73,"left_children":[1,3,5,7,9,11,13,-1,-1,-1,-1,-1,-1,-1,-1],"loss_changes":[1.1838474E1,1.683802E1,2.2189676E1,4.359808E0,1.7406416E1,8.601852E0,2.4913889E1,0E0,0E0,0E0,0E0,0E0,0E0,0E0,0E0],"parents":[2147483647,0,0,1,1,2,2,3,3,4,4,5,5,6,6],"right_children":[2,4,6,8,10,12,14,-1,-1,-1,-1,-1,-1,-1,-1],"split_conditions":[1.21474296E-1,1E0,2E0,3.28E2,2.171E3,2E-1,2.143E3,3.63683E-2,-0E0,-2.1645203E-2,2.3640081E-2,-4.4238545E-2,-0E0,-2.4797995E-2,4.1838683E-2],"split_indices":[79,315,315,306,307,302,307,0,0,0,0,0,0,0,0],"split_type":[0,0,0,0,0,0,0,0,0,0,0,0,0,0,0],"sum_hessian":[2.4030083E2,1.3891557E2,1.0138525E2,5.406304E1,8.485254E1,5.3305023E1,4.808022E1,4.747972E1,6.5833197E0,5.45886E1,3.0263935E1,4.7609955E1,5.695069E0,2.1072245E1,2.7007975E1],"tree_param":{"num_deleted":"0","num_feature":"316","num_nodes":"15","size_leaf_vector":"1"}},{"base_weights":[-0E0,3.639034E-2,-3.710961E-2,-7.646584E-2,4.514864E-1,-1.8286368E-2,4.092372E-3,3.0977234E-2,-0E0],"categories":[],"categories_nodes":[],"categories_segments":[],"categories_sizes":[],"default_left":[0,0,0,0,0,0,0,0,0],"id":74,"left_children":[1,3,-1,5,7,-1,-1,-1,-1],"loss_changes":[1.2767996E1,1.4073611E1,0E0,9.948314E0,5.091612E0,0E0,0E0,0E0,0E0],"parents":[2147483647,0,0,1,1,3,3,4,4],"right_children":[2,4,-1,6,8,-1,-1,-1,-1],"split_conditions":[1.985708E-1,1E0,-3.710961E-2,1.979E3,1.3658606E-1,-1.8286368E-2,4.092372E-3,3.0977234E-2,-0E0],"split_indices":[225,311,0,307,85,0,0,0,0],"split_type":[0,0,0,0,0,0,0,0,0],"sum_hessian":[2.4028201E2,2.1863127E2,2.1650747E1,1.5359648E2,6.503478E1,7.620838E1,7.738811E1,4.733355E1,1.7701231E1],"tree_param":{"num_deleted":"0","num_feature":"316","num_nodes":"9","size_leaf_vector":"1"}},{"base_weights":[-0E0,6.629961E-2,-3.28937E-2,-0E0,6.7508394E-1,-1.556916E-2,1.0829437E-2,-0E0,3.6925606E-2],"categories":[],"categories_nodes":[],"categories_segments":[],"categories_sizes":[],"default_left":[0,0,0,0,0,0,0,0,0],"id":75,"left_children":[1,3,-1,5,7,-1,-1,-1,-1],"loss_changes":[1.34546795E1,1.51477585E1,0E0,1.2985922E1,1.8890953E0,0E0,0E0,0E0,0E0],"parents":[2147483647,0,0,1,1,3,3,4,4],"right_children":[2,4,-1,6,8,-1,-1,-1,-1],"split_conditions":[1.17218874E-1,9.803922E-3,-3.28937E-2,1.979E3,6.001152E-4,-1.556916E-2,1.0829437E-2,-0E0,3.6925606E-2],"split_indices":[148,301,0,307,300,0,0,0,0],"split_type":[0,0,0,0,0,0,0,0,0],"sum_hessian":[2.3905353E2,2.1112024E2,2.7933292E1,1.7683647E2,3.428376E1,9.084196E1,8.5994514E1,2.3368332E0,3.1946928E1],"tree_param":{"num_deleted":"0","num_feature":"316","num_nodes":"9","size_leaf_vector":"1"}},{"base_weights":[-0E0,-1.6810596E-1,3.3911386E-1,-4.2115194E-1,-0E0,-0E0,5.5545026E-1,-0E0,-3.4599613E-2,-2.2070847E-2,4.4722807E-2,-5.1602595E-3,-0E0,3.273356E-2,-0E0],"categories":[],"categories_nodes":[],"categories_segments":[],"categories_sizes":[],"default_left":[0,0,0,0,0,0,0,0,0,0,0,0,0,0,0],"id":76,"left_children":[1,3,5,7,9,11,13,-1,-1,-1,-1,-1,-1,-1,-1],"loss_changes":[1.325774E1,1.0750776E1,1.0163795E1,1.4707697E1,3.7090557E1,1.0478912E-1,6.2523937E0,0E0,0E0,0E0,0E0,0E0,0E0,0E0,0E0],"parents":[2147483647,0,0,1,1,2,2,3,3,4,4,5,5,6,6],"right_children":[2,4,6,8,10,12,14,-1,-1,-1,-1,-1,-1,-1,-1],"split_conditions":[1E0,2.009E3,7.041352E-4,1E0,2E0,1.2980445E-1,1.8841492E-1,-0E0,-3.4599613E-2,-2.2070847E-2,4.4722807E-2,-5.1602595E-3,-0E0,3.273356E-2,-0E0],"split_indices":[311,307,300,315,315,77,23,0,0,0,0,0,0,0,0],"split_type":[0,0,0,0,0,0,0,0,0,0,0,0,0,0,0],"sum_hessian":[2.4156374E2,1.6907024E2,7.24935E1,8.670924E1,8.236099E1,1.3156676E1,5.933682E1,2.4507015E1,6.220223E1,4.9235394E1,3.31256E1,8.838144E0,4.3185325E0,5.7021786E1,2.3150337E0],"tree_param":{"num_deleted":"0","num_feature":"316","num_nodes":"15","size_leaf_vector":"1"}},{"base_weights":[-0E0,8.370289E-2,-3.2540638E-2,-1.8715732E-1,3.6268678E-1,-2.6784504E-2,1.783026E-3,3.0088916E-2,-0E0],"categories":[],"categories_nodes":[],"categories_segments":[],"categories_sizes":[],"default_left":[0,0,0,0,0,0,0,0,0],"id":77,"left_children":[1,3,-1,5,7,-1,-1,-1,-1],"loss_changes":[1.3531943E1,1.7720175E1,0E0,1.1947653E1,1.4704994E1,0E0,0E0,0E0,0E0],"parents":[2147483647,0,0,1,1,3,3,4,4],"right_children":[2,4,-1,6,8,-1,-1,-1,-1],"split_conditions":[1.17218874E-1,1E0,-3.2540638E-2,2E0,1.1013746E-1,-2.6784504E-2,1.783026E-3,3.0088916E-2,-0E0],"split_indices":[148,309,0,315,28,0,0,0,0],"split_type":[0,0,0,0,0,0,0,0,0],"sum_hessian":[2.3684189E2,2.0937341E2,2.7468481E1,8.821343E1,1.2115998E2,5.135665E1,3.6856777E1,8.39792E1,3.718078E1],"tree_param":{"num_deleted":"0","num_feature":"316","num_nodes":"9","size_leaf_vector":"1"}},{"base_weights":[-0E0,1.5440193E-1,-2.981506E-1,6.039033E-1,-0E0,-7.509334E-1,-0E0,3.847353E-2,-0E0,-2.411638E-2,2.0103868E-2,-4.3349635E-2,-0E0,-2.5234098E-2,4.025743E-2],"categories":[],"categories_nodes":[],"categories_segments":[],"categories_sizes":[],"default_left":[0,0,0,0,0,0,0,0,0,0,0,0,0,0,0],"id":78,"left_children":[1,3,5,7,9,11,13,-1,-1,-1,-1,-1,-1,-1,-1],"loss_changes":[1.1993994E1,1.503619E1,2.0838467E1,4.235821E0,1.7523277E1,6.2496147E0,2.26339E1,0E0,0E0,0E0,0E0,0E0,0E0,0E0,0E0],"parents":[2147483647,0,0,1,1,2,2,3,3,4,4,5,5,6,6],"right_children":[2,4,6,8,10,12,14,-1,-1,-1,-1,-1,-1,-1,-1],"split_conditions":[1.22081906E-1,1E0,2E0,1.969E3,2.024E3,2E-1,2.143E3,3.847353E-2,-0E0,-2.411638E-2,2.0103868E-2,-4.3349635E-2,-0E0,-2.5234098E-2,4.025743E-2],"split_indices":[79,315,315,307,307,302,307,0,0,0,0,0,0,0,0],"split_type":[0,0,0,0,0,0,0,0,0,0,0,0,0,0,0],"sum_hessian":[2.3133092E2,1.3346826E2,9.786267E1,4.901905E1,8.44492E1,5.153891E1,4.6323757E1,3.6963676E1,1.2055374E1,4.898138E1,3.5467823E1,4.6728466E1,4.8104463E0,2.1087244E1,2.5236513E1],"tree_param":{"num_deleted":"0","num_feature":"316","num_nodes":"15","size_leaf_vector":"1"}},{"base_weights":[-0E0,2.386986E-2,-3.4566876E-2,2.2087175E-1,-1.5104514E-1,3.0377218E-2,-0E0,-2.8880065E-2,-0E0],"categories":[],"categories_nodes":[],"categories_segments":[],"categories_sizes":[],"default_left":[0,0,0,0,0,0,0,0,0],"id":79,"left_children":[1,3,-1,5,7,-1,-1,-1,-1],"loss_changes":[9.6196995E0,7.9368873E0,0E0,1.2789112E1,1.1209384E1,0E0,0E0,0E0,0E0],"parents":[2147483647,0,0,1,1,3,3,4,4],"right_children":[2,4,-1,6,8,-1,-1,-1,-1],"split_conditions":[2.1779229E-1,1.1810787E-1,-3.4566876E-2,1E0,2E0,3.0377218E-2,-0E0,-2.8880065E-2,-0E0],"split_indices":[23,79,0,315,315,0,0,0,0],"split_type":[0,0,0,0,0,0,0,0,0],"sum_hessian":[2.2697693E2,2.0809909E2,1.887783E1,1.2463456E2,8.346453E1,5.025329E1,7.438127E1,3.837498E1,4.508955E1],"tree_param":{"num_deleted":"0","num_feature":"316","num_nodes":"9","size_leaf_vector":"1"}},{"base_weights":[-1.6949264E-3,2.9481826E-2,-3.1101247E-2,-4.183558E-2,3.5224106E-2,-1.8254371E-2,9.247349E-3],"categories":[],"categories_nodes":[],"categories_segments":[],"categories_sizes":[],"default_left":[0,0,0,0,0,0,0],"id":80,"left_children":[1,3,-1,5,-1,-1,-1],"loss_changes":[1.0464765E1,1.6677803E1,0E0,1.4759065E1,0E0,0E0,0E0],"parents":[2147483647,0,0,1,1,3,3],"right_children":[2,4,-1,6,-1,-1,-1],"split_conditions":[1.17218874E-1,9.803922E-3,-3.1101247E-2,1.979E3,3.5224106E-2,-1.8254371E-2,9.247349E-3],"split_indices":[148,301,0,307,0,0,0],"split_type":[0,0,0,0,0,0,0],"sum_hessian":[2.327655E2,2.0718477E2,2.558074E1,1.7483566E2,3.234911E1,9.0015045E1,8.482061E1],"tree_param":{"num_deleted":"0","num_feature":"316","num_nodes":"7","size_leaf_vector":"1"}},{"base_weights":[-0E0,1.41273355E-2,-6.5685004E-1,-6.643801E-2,3.7334275E-1,-3.6251884E-2,-0E0,-1.9500017E-2,7.0891264E-3,-0E0,2.6477953E-2],"categories":[],"categories_nodes":[],"categories_segments":[],"categories_sizes":[],"default_left":[0,0,0,0,0,0,0,0,0,0,0],"id":81,"left_children":[1,3,5,7,9,-1,-1,-1,-1,-1,-1],"loss_changes":[8.304817E0,9.28627E0,1.6948128E-1,1.2837616E1,6.097949E0,0E0,0E0,0E0,0E0,0E0,0E0],"parents":[2147483647,0,0,1,1,2,2,3,3,4,4],"right_children":[2,4,6,8,10,-1,-1,-1,-1,-1,-1],"split_conditions":[2.2374496E-1,1E0,9.803922E-3,1.979E3,7.041352E-4,-3.6251884E-2,-0E0,-1.9500017E-2,7.0891264E-3,-0E0,2.6477953E-2],"split_indices":[23,311,301,307,300,0,0,0,0,0,0],"split_type":[0,0,0,0,0,0,0,0,0,0,0],"sum_hessian":[2.3112158E2,2.1297203E2,1.8149551E1,1.518839E2,6.1088142E1,1.5039416E1,3.1101348E0,7.793325E1,7.3950645E1,9.483415E0,5.1604725E1],"tree_param":{"num_deleted":"0","num_feature":"316","num_nodes":"11","size_leaf_vector":"1"}},{"base_weights":[-0E0,7.609101E-2,-3.0434554E-2,-1.9009025E-1,3.161813E-1,-2.301292E-2,-0E0,-0E0,4.0004067E-2],"categories":[],"categories_nodes":[],"categories_segments":[],"categories_sizes":[],"default_left":[0,0,0,0,0,0,0,0,0],"id":82,"left_children":[1,3,-1,5,7,-1,-1,-1,-1],"loss_changes":[1.0708595E1,1.4109211E1,0E0,8.145265E0,1.8752825E1,0E0,0E0,0E0,0E0],"parents":[2147483647,0,0,1,1,3,3,4,4],"right_children":[2,4,-1,6,8,-1,-1,-1,-1],"split_conditions":[1.17218874E-1,3.6006914E-3,-3.0434554E-2,1.1914413E-1,1.979E3,-2.301292E-2,-0E0,-0E0,4.0004067E-2],"split_indices":[148,300,0,188,307,0,0,0,0],"split_type":[0,0,0,0,0,0,0,0,0],"sum_hessian":[2.2388039E2,1.9910469E2,2.4775698E1,7.476838E1,1.2433632E2,5.03747E1,2.4393679E1,7.646693E1,4.7869392E1],"tree_param":{"num_deleted":"0","num_feature":"316","num_nodes":"9","size_leaf_vector":"1"}},{"base_weights":[-0E0,-2.416935E-1,1.5432918E-1,-4.5126328E-1,-0E0,6.231869E-1,-0E0,-0E0,-3.5844885E-2,-7.538095E-3,3.244396E-2,3.9480284E-2,-0E0,-2.1134144E-2,1.3906573E-2],"categories":[],"categories_nodes":[],"categories_segments":[],"categories_sizes":[],"default_left":[0,0,0,0,0,0,0,0,0,0,0,0,0,0,0],"id":83,"left_children":[1,3,5,7,9,11,13,-1,-1,-1,-1,-1,-1,-1,-1],"loss_changes":[8.659565E0,8.389265E0,1.5383213E1,1.1383056E1,6.727162E0,8.697882E0,1.1608345E1,0E0,0E0,0E0,0E0,0E0,0E0,0E0,0E0],"parents":[2147483647,0,0,1,1,2,2,3,3,4,4,5,5,6,6],"right_children":[2,4,6,8,10,12,14,-1,-1,-1,-1,-1,-1,-1,-1],"split_conditions":[1E0,1.1052339E-1,1E0,1.951E3,2.143E3,1.985708E-1,3.02E2,-0E0,-3.5844885E-2,-7.538095E-3,3.244396E-2,3.9480284E-2,-0E0,-2.1134144E-2,1.3906573E-2],"split_indices":[309,6,313,307,307,225,306,0,0,0,0,0,0,0,0],"split_type":[0,0,0,0,0,0,0,0,0,0,0,0,0,0,0],"sum_hessian":[2.2512167E2,9.293813E1,1.3218353E2,6.714393E1,2.57942E1,4.67784E1,8.5405136E1,1.8994852E1,4.8149075E1,1.1491181E1,1.43030205E1,4.271162E1,4.0667815E0,4.6845604E1,3.8559532E1],"tree_param":{"num_deleted":"0","num_feature":"316","num_nodes":"15","size_leaf_vector":"1"}},{"base_weights":[-0E0,6.437292E-2,-2.960606E-2,-0E0,6.515106E-1,-1.7490923E-2,9.381094E-3,-0E0,3.476092E-2],"categories":[],"categories_nodes":[],"categories_segments":[],"categories_sizes":[],"default_left":[0,0,0,0,0,0,0,0,0],"id":84,"left_children":[1,3,-1,5,7,-1,-1,-1,-1],"loss_changes":[9.551466E0,1.2425688E1,0E0,1.244039E1,8.574858E-1,0E0,0E0,0E0,0E0],"parents":[2147483647,0,0,1,1,3,3,4,4],"right_children":[2,4,-1,6,8,-1,-1,-1,-1],"split_conditions":[1.17218874E-1,9.803922E-3,-2.960606E-2,8.866199E-2,5.681091E-4,-1.7490923E-2,9.381094E-3,-0E0,3.476092E-2],"split_indices":[148,301,0,271,300,0,0,0,0],"split_type":[0,0,0,0,0,0,0,0,0],"sum_hessian":[2.2324048E2,1.9936601E2,2.3874468E1,1.6913625E2,3.0229773E1,7.260312E1,9.653312E1,2.0292125E0,2.8200562E1],"tree_param":{"num_deleted":"0","num_feature":"316","num_nodes":"9","size_leaf_vector":"1"}},{"base_weights":[-0E0,4.0904753E-2,-2.8923525E-2,-1.251566E-2,6.3601214E-1,-1.5536544E-2,9.404288E-3,-0E0,3.4434542E-2],"categories":[],"categories_nodes":[],"categories_segments":[],"categories_sizes":[],"default_left":[0,0,0,0,0,0,0,0,0],"id":85,"left_children":[1,3,-1,5,7,-1,-1,-1,-1],"loss_changes":[8.426409E0,1.2605961E1,0E0,1.1408462E1,1.2646503E0,0E0,0E0,0E0,0E0],"parents":[2147483647,0,0,1,1,3,3,4,4],"right_children":[2,4,-1,6,8,-1,-1,-1,-1],"split_conditions":[1.17218874E-1,9.803922E-3,-2.8923525E-2,1.996E3,1.67E2,-1.5536544E-2,9.404288E-3,-0E0,3.4434542E-2],"split_indices":[148,301,0,307,307,0,0,0,0],"split_type":[0,0,0,0,0,0,0,0,0],"sum_hessian":[2.2233344E2,1.9915283E2,2.3180616E1,1.6822704E2,3.092579E1,8.747994E1,8.0747086E1,2.0309021E0,2.8894888E1],"tree_param":{"num_deleted":"0","num_feature":"316","num_nodes":"9","size_leaf_vector":"1"}},{"base_weights":[-0E0,1.10820964E-1,-2.3916982E-1,5.9164536E-1,-5.8154736E-2,-6.904832E-1,7.394215E-3,3.9539017E-2,-0E0,-2.352825E-2,1.442762E-2,-4.2044923E-2,-0E0,-1.8369053E-2,3.499862E-2],"categories":[],"categories_nodes":[],"categories_segments":[],"categories_sizes":[],"default_left":[0,0,0,0,0,0,0,0,0,0,0,0,0,0,0],"id":86,"left_children":[1,3,5,7,9,11,13,-1,-1,-1,-1,-1,-1,-1,-1],"loss_changes":[6.8073273E0,1.5903603E1,1.6980894E1,6.0061245E0,1.3603728E1,7.344599E0,1.54236555E1,0E0,0E0,0E0,0E0,0E0,0E0,0E0,0E0],"parents":[2147483647,0,0,1,1,2,2,3,3,4,4,5,5,6,6],"right_children":[2,4,6,8,10,12,14,-1,-1,-1,-1,-1,-1,-1,-1],"split_conditions":[1.21474296E-1,1E0,2E0,1.969E3,1.979E3,2E-1,2.143E3,3.9539017E-2,-0E0,-2.352825E-2,1.442762E-2,-4.2044923E-2,-0E0,-1.8369053E-2,3.499862E-2],"split_indices":[79,315,315,307,307,302,307,0,0,0,0,0,0,0,0],"split_type":[0,0,0,0,0,0,0,0,0,0,0,0,0,0,0],"sum_hessian":[2.18824E2,1.2865657E2,9.016743E1,4.8195076E1,8.0461494E1,4.5549725E1,4.4617702E1,3.6142704E1,1.2052374E1,4.9758728E1,3.0702766E1,4.0772804E1,4.7769217E0,1.988699E1,2.4730715E1],"tree_param":{"num_deleted":"0","num_feature":"316","num_nodes":"15","size_leaf_vector":"1"}},{"base_weights":[-0E0,4.6638254E-2,-3.0258566E-2,1.7635491E-1,-2.6817543E-2,1.4471257E-2,-1.9612126E-2],"categories":[],"categories_nodes":[],"categories_segments":[],"categories_sizes":[],"default_left":[0,0,0,0,0,0,0],"id":87,"left_children":[1,3,-1,5,-1,-1,-1],"loss_changes":[7.7698174E0,1.14310875E1,0E0,1.0422918E1,0E0,0E0,0E0],"parents":[2147483647,0,0,1,1,3,3],"right_children":[2,4,-1,6,-1,-1,-1],"split_conditions":[1.985708E-1,1.17218874E-1,-3.0258566E-2,2.044655E-1,-2.6817543E-2,1.4471257E-2,-1.9612126E-2],"split_indices":[225,148,0,95,0,0,0],"split_type":[0,0,0,0,0,0,0],"sum_hessian":[2.1555356E2,1.9651106E2,1.9042486E1,1.7534648E2,2.116459E1,1.613407E2,1.4005787E1],"tree_param":{"num_deleted":"0","num_feature":"316","num_nodes":"7","size_leaf_vector":"1"}},{"base_weights":[-0E0,3.240892E-2,-2.8809939E-2,-1.5056379E-2,6.1112386E-1,-1.321947E-2,1.0185211E-2,-0E0,3.4029484E-2],"categories":[],"categories_nodes":[],"categories_segments":[],"categories_sizes":[],"default_left":[0,0,0,0,0,0,0,0,0],"id":88,"left_children":[1,3,-1,5,7,-1,-1,-1,-1],"loss_changes":[8.220278E0,1.1278614E1,0E0,9.585246E0,1.6497097E0,0E0,0E0,0E0,0E0],"parents":[2147483647,0,0,1,1,3,3,4,4],"right_children":[2,4,-1,6,8,-1,-1,-1,-1],"split_conditions":[1.17218874E-1,9.803922E-3,-2.8809939E-2,9.962482E-2,6.001152E-4,-1.321947E-2,1.0185211E-2,-0E0,3.4029484E-2],"split_indices":[148,301,0,264,300,0,0,0,0],"split_type":[0,0,0,0,0,0,0,0,0],"sum_hessian":[2.154118E2,1.9226372E2,2.3148085E1,1.626202E2,2.9643536E1,9.726529E1,6.5354904E1,2.3746226E0,2.7268913E1],"tree_param":{"num_deleted":"0","num_feature":"316","num_nodes":"9","size_leaf_vector":"1"}},{"base_weights":[-0E0,7.194906E-2,-5.628382E-1,-2.8975025E-2,3.2379416E-1,-0E0,-3.0532777E-2,1.4759669E-2,-3.691189E-2,-3.9781993E-3,4.0954415E-2],"categories":[],"categories_nodes":[],"categories_segments":[],"categories_sizes":[],"default_left":[0,0,0,0,0,0,0,0,0,0,0],"id":89,"left_children":[1,3,5,7,9,-1,-1,-1,-1,-1,-1],"loss_changes":[6.9420824E0,8.058985E0,2.956338E-1,3.12863E1,2.4611542E1,0E0,0E0,0E0,0E0,0E0,0E0],"parents":[2147483647,0,0,1,1,2,2,3,3,4,4],"right_children":[2,4,6,8,10,-1,-1,-1,-1,-1,-1],"split_conditions":[1.8064758E-1,2.024E3,6.569367E-2,2E0,2E0,-0E0,-3.0532777E-2,1.4759669E-2,-3.691189E-2,-3.9781993E-3,4.0954415E-2],"split_indices":[23,307,269,315,315,0,0,0,0,0,0],"split_type":[0,0,0,0,0,0,0,0,0,0,0],"sum_hessian":[2.1734106E2,1.997068E2,1.7634266E1,1.1485711E2,8.484969E1,2.0112534E0,1.5623013E1,6.955271E1,4.5304398E1,3.609993E1,4.8749763E1],"tree_param":{"num_deleted":"0","num_feature":"316","num_nodes":"11","size_leaf_vector":"1"}},{"base_weights":[-0E0,-2.5796932E-1,1.2975983E-1,-4.7464916E-1,-0E0,2.8516588E-1,-1.882224E-2,-3.399154E-2,-0E0,5.917569E-3,-0E0,-1.5147288E-2,2.1872997E-2],"categories":[],"categories_nodes":[],"categories_segments":[],"categories_sizes":[],"default_left":[0,0,0,0,0,0,0,0,0,0,0,0,0],"id":90,"left_children":[1,3,5,7,9,11,-1,-1,-1,-1,-1,-1,-1],"loss_changes":[7.580969E0,8.424915E0,9.744799E0,8.672924E0,2.4358748E-1,1.2072792E1,0E0,0E0,0E0,0E0,0E0,0E0,0E0],"parents":[2147483647,0,0,1,1,2,2,3,3,4,4,5,5],"right_children":[2,4,6,8,10,12,-1,-1,-1,-1,-1,-1,-1],"split_conditions":[3.640699E-3,1.1002277E-1,1.17218874E-1,1.6721047E-1,1.985708E-1,3E0,-1.882224E-2,-3.399154E-2,-0E0,5.917569E-3,-0E0,-1.5147288E-2,2.1872997E-2],"split_indices":[300,264,148,6,225,308,0,0,0,0,0,0,0],"split_type":[0,0,0,0,0,0,0,0,0,0,0,0,0],"sum_hessian":[2.1209697E2,7.8984764E1,1.3311221E2,6.002199E1,1.896277E1,1.1729414E2,1.5818068E1,4.751176E1,1.2510229E1,1.639035E1,2.5724201E0,1.04166565E1,1.0687749E2],"tree_param":{"num_deleted":"0","num_feature":"316","num_nodes":"13","size_leaf_vector":"1"}},{"base_weights":[-0E0,1.1098665E-2,-2.6332727E-2,-3.5714477E-2,6.2894505E-1,-1.7438639E-2,8.440895E-3,-0E0,3.2781925E-2],"categories":[],"categories_nodes":[],"categories_segments":[],"categories_sizes":[],"default_left":[0,0,0,0,0,0,0,0,0],"id":91,"left_children":[1,3,-1,5,7,-1,-1,-1,-1],"loss_changes":[6.0812106E0,1.136997E1,0E0,1.2099499E1,3.2291412E-2,0E0,0E0,0E0,0E0],"parents":[2147483647,0,0,1,1,3,3,4,4],"right_children":[2,4,-1,6,8,-1,-1,-1,-1],"split_conditions":[1.17218874E-1,9.803922E-3,-2.6332727E-2,1.979E3,2.24E2,-1.7438639E-2,8.440895E-3,-0E0,3.2781925E-2],"split_indices":[148,301,0,307,307,0,0,0,0],"split_type":[0,0,0,0,0,0,0,0,0],"sum_hessian":[2.0706787E2,1.8622607E2,2.0841793E1,1.5894038E2,2.7285692E1,8.184888E1,7.709151E1,2.1812236E0,2.5104467E1],"tree_param":{"num_deleted":"0","num_feature":"316","num_nodes":"9","size_leaf_vector":"1"}},{"base_weights":[-0E0,-2.6326832E-1,1.1629922E-1,-4.5970795E-1,-0E0,-4.1244134E-2,5.513502E-1,-3.7744887E-2,-0E0,1.1464956E-2,-3.004892E-2,3.8788833E-2,-0E0],"categories":[],"categories_nodes":[],"categories_segments":[],"categories_sizes":[],"default_left":[0,0,0,0,0,0,0,0,0,0,0,0,0],"id":92,"left_children":[1,3,5,7,-1,9,11,-1,-1,-1,-1,-1,-1],"loss_changes":[7.162829E0,7.009362E0,1.438759E1,9.010275E0,0E0,1.6466297E1,1.1811087E1,0E0,0E0,0E0,0E0,0E0,0E0],"parents":[2147483647,0,0,1,1,2,2,3,3,5,5,6,6],"right_children":[2,4,6,8,-1,10,12,-1,-1,-1,-1,-1,-1],"split_conditions":[3.6006914E-3,1.2980445E-1,1.979E3,2E0,-0E0,1.513E3,1.17218874E-1,-3.7744887E-2,-0E0,1.1464956E-2,-3.004892E-2,3.8788833E-2,-0E0],"split_indices":[300,77,307,315,0,307,148,0,0,0,0,0,0],"split_type":[0,0,0,0,0,0,0,0,0,0,0,0,0],"sum_hessian":[2.1012886E2,7.596873E1,1.3416013E2,5.741102E1,1.855771E1,8.228276E1,5.187736E1,3.6472294E1,2.0938726E1,4.3825E1,3.845776E1,4.5333923E1,6.5434384E0],"tree_param":{"num_deleted":"0","num_feature":"316","num_nodes":"13","size_leaf_vector":"1"}},{"base_weights":[-0E0,3.6979284E-2,-2.5169462E-2,-2.221583E-2,3.675E-1,-1.3661358E-2,4.6703117E-3,2.39382E-2,-0E0],"categories":[],"categories_nodes":[],"categories_segments":[],"categories_sizes":[],"default_left":[0,0,0,0,0,0,0,0,0],"id":93,"left_children":[1,3,-1,5,7,-1,-1,-1,-1],"loss_changes":[5.514855E0,7.2290545E0,0E0,5.8468084E0,4.5689635E0,0E0,0E0,0E0,0E0],"parents":[2147483647,0,0,1,1,3,3,4,4],"right_children":[2,4,-1,6,8,-1,-1,-1,-1],"split_conditions":[1.985708E-1,1E0,-2.5169462E-2,1.979E3,2.2317562E-1,-1.3661358E-2,4.6703117E-3,2.39382E-2,-0E0],"split_indices":[225,311,0,307,23,0,0,0,0],"split_type":[0,0,0,0,0,0,0,0,0],"sum_hessian":[2.113133E2,1.9158922E2,1.9724073E1,1.3761954E2,5.3969685E1,7.024523E1,6.73743E1,5.1321903E1,2.6477792E0],"tree_param":{"num_deleted":"0","num_feature":"316","num_nodes":"9","size_leaf_vector":"1"}},{"base_weights":[-0E0,4.1979436E-2,-2.6881048E-2,1.6236344E-1,-2.4366846E-2,1.4658389E-2,-2.450915E-2],"categories":[],"categories_nodes":[],"categories_segments":[],"categories_sizes":[],"default_left":[0,0,0,0,0,0,0],"id":94,"left_children":[1,3,-1,5,-1,-1,-1],"loss_changes":[6.647816E0,9.020164E0,0E0,1.2855372E1,0E0,0E0,0E0],"parents":[2147483647,0,0,1,1,3,3],"right_children":[2,4,-1,6,-1,-1,-1],"split_conditions":[1.985708E-1,1.17218874E-1,-2.6881048E-2,2.3841836E-1,-2.4366846E-2,1.4658389E-2,-2.450915E-2],"split_indices":[225,148,0,3,0,0,0],"split_type":[0,0,0,0,0,0,0],"sum_hessian":[2.1114764E2,1.9031416E2,2.0833479E1,1.7100708E2,1.9307098E1,1.5567667E2,1.5330411E1],"tree_param":{"num_deleted":"0","num_feature":"316","num_nodes":"7","size_leaf_vector":"1"}},{"base_weights":[-0E0,5.1887784E-2,-5.7329106E-1,1.670462E-1,-2.2110125E-2,-3.373529E-2,-0E0,1.8861586E-2,-0E0],"categories":[],"categories_nodes":[],"categories_segments":[],"categories_sizes":[],"default_left":[0,0,0,0,0,0,0,0,0],"id":95,"left_children":[1,3,5,7,-1,-1,-1,-1,-1],"loss_changes":[6.768453E0,7.8202114E0,7.1864986E-1,9.467095E0,0E0,0E0,0E0,0E0,0E0],"parents":[2147483647,0,0,1,1,2,2,3,3],"right_children":[2,4,6,8,-1,-1,-1,-1,-1],"split_conditions":[1.8064758E-1,1.17218874E-1,9.803922E-3,1.2249373E-1,-2.2110125E-2,-3.373529E-2,-0E0,1.8861586E-2,-0E0],"split_indices":[23,148,301,79,0,0,0,0,0],"split_type":[0,0,0,0,0,0,0,0,0],"sum_hessian":[2.0158437E2,1.8350185E2,1.808252E1,1.6576732E2,1.7734528E1,1.4355739E1,3.7267802E0,9.822888E1,6.753844E1],"tree_param":{"num_deleted":"0","num_feature":"316","num_nodes":"9","size_leaf_vector":"1"}},{"base_weights":[-0E0,1.4159873E-2,-2.4766415E-2,-1.811741E-2,5.6263196E-1,-1.6513968E-2,4.79461E-3,-0E0,3.1392228E-2],"categories":[],"categories_nodes":[],"categories_segments":[],"categories_sizes":[],"default_left":[0,0,0,0,0,0,0,0,0],"id":96,"left_children":[1,3,-1,5,7,-1,-1,-1,-1],"loss_changes":[5.1025715E0,8.773849E0,0E0,8.097757E0,9.008274E-1,0E0,0E0,0E0,0E0],"parents":[2147483647,0,0,1,1,3,3,4,4],"right_children":[2,4,-1,6,8,-1,-1,-1,-1],"split_conditions":[1.17218874E-1,9.803922E-3,-2.4766415E-2,1.0498096E-1,5.363243E-2,-1.6513968E-2,4.79461E-3,-0E0,3.1392228E-2],"split_indices":[148,301,0,298,264,0,0,0,0],"split_type":[0,0,0,0,0,0,0,0,0],"sum_hessian":[2.0609656E2,1.8645265E2,1.9643913E1,1.5978395E2,2.6668697E1,6.5702736E1,9.408122E1,3.1639771E0,2.350472E1],"tree_param":{"num_deleted":"0","num_feature":"316","num_nodes":"9","size_leaf_vector":"1"}},{"base_weights":[-0E0,2.6939576E-2,-5.1138467E-1,1.3392839E-1,-2.1373082E-2,-2.9723927E-2,-0E0,-0E0,2.351878E-2],"categories":[],"categories_nodes":[],"categories_segments":[],"categories_sizes":[],"default_left":[0,0,0,0,0,0,0,0,0],"id":97,"left_children":[1,3,5,7,-1,-1,-1,-1,-1],"loss_changes":[4.6738253E0,6.275051E0,4.2269135E-1,7.064082E0,0E0,0E0,0E0,0E0,0E0],"parents":[2147483647,0,0,1,1,2,2,3,3],"right_children":[2,4,6,8,-1,-1,-1,-1,-1],"split_conditions":[1.8064758E-1,1.17218874E-1,9.803922E-3,1E0,-2.1373082E-2,-2.9723927E-2,-0E0,-0E0,2.351878E-2],"split_indices":[23,148,301,311,0,0,0,0,0],"split_type":[0,0,0,0,0,0,0,0,0],"sum_hessian":[2.0362439E2,1.8727472E2,1.634967E1,1.6996799E2,1.7306732E1,1.3034555E1,3.3151155E0,1.2518017E2,4.478783E1],"tree_param":{"num_deleted":"0","num_feature":"316","num_nodes":"9","size_leaf_vector":"1"}},{"base_weights":[-0E0,-1.7219983E-1,1.6328534E-1,-0E0,-7.309682E-1,-2.0569045E-2,8.347753E-1,9.582463E-3,-1.4555067E-2,-4.0964004E-2,-0E0,-2.235025E-2,8.5293234E-4,4.8355035E-2,-0E0],"categories":[],"categories_nodes":[],"categories_segments":[],"categories_sizes":[],"default_left":[0,0,0,0,0,0,0,0,0,0,0,0,0,0,0],"id":98,"left_children":[1,3,5,7,9,11,13,-1,-1,-1,-1,-1,-1,-1,-1],"loss_changes":[5.737323E0,1.6853312E1,1.802686E1,4.059379E0,3.746807E0,5.1419907E0,3.9301414E0,0E0,0E0,0E0,0E0,0E0,0E0,0E0,0E0],"parents":[2147483647,0,0,1,1,2,2,3,3,4,4,5,5,6,6],"right_children":[2,4,6,8,10,12,14,-1,-1,-1,-1,-1,-1,-1,-1],"split_conditions":[2.171E3,1.306544E-1,1.1691828E-1,1.969E3,1.8646389E-1,2.880553E-3,2.692E3,9.582463E-3,-1.4555067E-2,-4.0964004E-2,-0E0,-2.235025E-2,8.5293234E-4,4.8355035E-2,-0E0],"split_indices":[307,275,165,307,247,300,307,0,0,0,0,0,0,0,0],"split_type":[0,0,0,0,0,0,0,0,0,0,0,0,0,0,0],"sum_hessian":[1.9954475E2,1.20616714E2,7.892804E1,8.332543E1,3.729128E1,5.1032436E1,2.7895603E1,6.505E1,1.8275433E1,3.5063282E1,2.2279932E0,2.4804476E1,2.6227959E1,2.4731266E1,3.1643362E0],"tree_param":{"num_deleted":"0","num_feature":"316","num_nodes":"15","size_leaf_vector":"1"}},{"base_weights":[-0E0,-1.4433344E-1,1.3688633E-1,2.8594756E-1,-5.565988E-1,-4.1083452E-1,8.1914926E-1,2.472446E-2,-0E0,-4.4083763E-2,-0E0,-4.230575E-2,-0E0,5.30367E-2,-0E0],"categories":[],"categories_nodes":[],"categories_segments":[],"categories_sizes":[],"default_left":[0,0,0,0,0,0,0,0,0,0,0,0,0,0,0],"id":99,"left_children":[1,3,5,7,9,11,13,-1,-1,-1,-1,-1,-1,-1,-1],"loss_changes":[4.0708556E0,2.4447683E1,3.5058723E1,6.5378265E0,1.5870575E1,1.2564764E1,1.1791594E1,0E0,0E0,0E0,0E0,0E0,0E0,0E0,0E0],"parents":[2147483647,0,0,1,1,2,2,3,3,4,4,5,5,6,6],"right_children":[2,4,6,8,10,12,14,-1,-1,-1,-1,-1,-1,-1,-1],"split_conditions":[2.171E3,1E0,2E0,1.22253194E-1,9.803922E-3,2.741E3,2.692E3,2.472446E-2,-0E0,-4.4083763E-2,-0E0,-4.230575E-2,-0E0,5.30367E-2,-0E0],"split_indices":[307,315,315,28,301,307,307,0,0,0,0,0,0,0,0],"split_type":[0,0,0,0,0,0,0,0,0,0,0,0,0,0,0],"sum_hessian":[2.0165486E2,1.20664246E2,8.0990616E1,4.7323215E1,7.334103E1,3.7015385E1,4.397523E1,4.1896458E1,5.4267597E0,4.904377E1,2.429726E1,2.5513355E1,1.15020275E1,3.6301662E1,7.6735673E0],"tree_param":{"num_deleted":"0","num_feature":"316","num_nodes":"15","size_leaf_vector":"1"}}]},"name":"gbtree"},"learner_model_param":{"base_score":"4.9699914E-1","boost_from_average":"1","num_class":"0","num_feature":"316","num_target":"1"},"objective":{"name":"binary:logistic","reg_loss_param":{"scale_pos_weight":"1"}}},"version":[2,1,4]}